{"learner":{"attributes":{"scikit_learn":"{\"_estimator_type\": \"regressor\"}"},"feature_names":["Number of Vehicles Registered at the Same Address","Year Diff","Fuel Type_Diesel","Fuel Type_Electric","Fuel Type_Gasoline","Fuel Type_Hydrogen","Fuel Type_Natural Gas","Vehicle Category_B","Vehicle Category_BS","Vehicle Category_BT","Vehicle Category_MC","Vehicle Category_MH","Vehicle Category_P","Vehicle Category_T1","Vehicle Category_T2","Vehicle Category_T3","Vehicle Category_T4","Vehicle Category_T5","Vehicle Category_T6","Vehicle Category_T7","Fuel Technology_BEV","Fuel Technology_FCEV","Fuel Technology_ICE","Fuel Technology_PHEV","GVWR Class_1","GVWR Class_2","GVWR Class_3","GVWR Class_4","GVWR Class_5","GVWR Class_6","GVWR Class_7","GVWR Class_8","GVWR Class_Not Applicable","GVWR Class_Unknown","Electric Mile Encoded_Mile Range","Electric Mile Encoded_Not Applicable","Electric Mile Encoded_Unknown"],"feature_types":["int","float","float","float","float","float","float","float","float","float","float","float","float","float","float","float","float","float","float","float","float","float","float","float","float","float","float","float","float","float","float","float","float","float","float","float","float"],"gradient_booster":{"model":{"gbtree_model_param":{"num_parallel_tree":"1","num_trees":"100"},"iteration_indptr":[0,1,2,3,4,5,6,7,8,9,10,11,12,13,14,15,16,17,18,19,20,21,22,23,24,25,26,27,28,29,30,31,32,33,34,35,36,37,38,39,40,41,42,43,44,45,46,47,48,49,50,51,52,53,54,55,56,57,58,59,60,61,62,63,64,65,66,67,68,69,70,71,72,73,74,75,76,77,78,79,80,81,82,83,84,85,86,87,88,89,90,91,92,93,94,95,96,97,98,99,100],"tree_info":[0,0,0,0,0,0,0,0,0,0,0,0,0,0,0,0,0,0,0,0,0,0,0,0,0,0,0,0,0,0,0,0,0,0,0,0,0,0,0,0,0,0,0,0,0,0,0,0,0,0,0,0,0,0,0,0,0,0,0,0,0,0,0,0,0,0,0,0,0,0,0,0,0,0,0,0,0,0,0,0,0,0,0,0,0,0,0,0,0,0,0,0,0,0,0,0,0,0,0,0],"trees":[{"base_weights":[3.4215527E1,-3.2126846E3,4.013773E3,-3.2824524E3,-2.6074502E3,1.1355139E4,-1.7185673E3,-3.3187107E3,-2.155179E3,-1.8508442E3,-3.324356E3,5.8475425E3,2.2943912E4,1.8404707E3,-2.3388767E3,-3.3608135E3,-2.7467869E3,-3.3756674E2,-1.5943774E3,-8.8476263E2,-2.9510332E3,-2.847071E2,-3.4591537E2,2.0387179E3,2.525083E4,2.7886404E4,-2.591877E3,7.4344824E2,1.1503637E4,-2.6636926E3,3.7144326E3,-3.3874392E3,-2.814281E3,-3.3163058E2,-1.2755513E3,-6.8561053E2,-2.8412168E3,-1.4747432E3,7.169809E2,-2.3449885E3,-3.0955989E3,-1.7180457E3,1.8136621E4,-3.3216696E2,2.8776648E4,3.3722848E4,3.750959E3,-2.9390488E3,-1.6017E3,-1.6639141E3,5.8145234E3,9.103604E3,1.8366566E4,-1.5153816E3,-3.0813955E3,-6.783639E2,1.5936823E4,-3.4522822E3,-3.2541838E3,-2.279462E3,-3.3016074E2,1.3030718E3,-2.4574966E3,-1.018555E2,-3.1206503E2,-1.9838776E2,-3.0422757E2,-2.0677527E3,-8.5252454E2,-8.6566345E2,2.430466E3,-2.5370793E2,-1.7302269E2,-2.840211E2,-3.2460754E2,-3.0973453E2,-3.3971526E3,1.5585552E3,3.3328188E4,-1.3429314E2,2.9976979E4,-6.5698535E2,3.9222934E4,1.3630562E3,1.1372775E4,-3.0944568E2,-2.5943584E3,-2.1391447E2,-7.178596E2,-3.1125137E3,4.924721E3,7.652577E3,-2.560551E3,1.180784E3,6.2469995E2,1.9932444E3,9.563927E2,-1.9648864E3,2.2707952E3,-3.1677507E3,-2.3303645E3,-2.0459447E3,3.3889167E3,5.2283096E3,3.8800223E4,-3.3542563E2,-3.4727792E2,-3.3830771E3,-2.8892246E3,-2.648573E2,-1.4634609E3,1.7470708E3,-3.0778024E2,-1.7083237E3,-3.0532004E2,-3.271456E2,2.6749225E2,-1.979458E3,-3.1677396E2,1.1248949E2,-1.6145061E3,-5.153847E2,-3.0780524E2,4.0705298E3,8.19701E2,3.1854086E2,-2.801611E3,-3.4867917E2,-3.1494868E3,-8.0107275E2,4.495914E3,-2.9306174E2,3.7773258E4,-7.762703E1,1.16644775E2,4.5948363E4,2.5684596E4,-3.1389264E2,-2.4165044E2,5.312668E4,2.9666717E4,-3.0101974E2,1.6019159E3,-2.4667403E2,1.2475304E4,-2.863676E2,-2.2012093E2,-5.126731E1,-9.625277E1,-2.8176824E3,-3.4301837E2,-4.233764E2,1.001247E4,1.0240169E4,-1.5868546E3,-2.8389655E2,-1.5225249E2,-2.8979382E3,-9.653939E1,1.0887775E3,6.031396E3,-3.3631582E3,-2.7640007E3,-4.7006064E2,-2.8007263E3,-1.432212E3,-3.197124E2,3.9129346E2,9.064836E3,6.997799E3,-2.807535E2,4.8575727E4,-1.8807402E2,-3.4747397E2,-3.3186752E2,-2.5909277E2,-3.3539697E2,-9.568926E1,-3.3327258E2,-7.214272E1,2.0079536E2,-6.6052765E1,-1.87851E2,1.2593607E2,-6.691527E1,-1.6315233E2,-2.2790923E2,-5.8766182E1,5.332208E1,-2.0921822E2,-1.3159158E2,9.842861E1,-1.3823857E2,1.9061339E2,4.2616574E2,1.2191361E2,-6.1139455E0,1.5760063E2,-9.622397E1,-3.2226083E2,-1.4614087E2,-3.2541782E2,-2.719974E2,-3.3644028E2,-2.3184822E1,6.5897723E2,-4.5134758E1,2.9964392E3,5.8134136E3,5.047715E3,4.0599075E3,2.355399E3,3.1403552E3,-3.2752557E2,1.0755362E1,1.7627087E2,5.803289E3,3.2504158E3,2.1000605E3,2.089844E2,-2.769663E1,1.3458682E3,5.7208606E2,-2.985991E2,-2.3728116E2,-1.3910551E2,2.717261E2,7.352783E2,1.7501344E3,1.3487184E3,6.8897186E2,-2.1553441E2,6.772191E1,-3.3881577E2,-5.8630627E1,5.3974567E1,-2.8307242E2,2.5245947E2,3.665057E1,7.8586584E2,4.4185767E2,-3.4684622E2,-2.8719852E2,-3.0047177E2,-2.0978862E2,-1.345302E2,1.9929071E2,-3.0354285E2,-2.1169775E2,-1.2325221E2,-3.1899893E2,-1.5589886E2,7.0654553E2,1.102107E3,-1.5153662E2,9.08213E2,-1.6224394E2,6.1479917E3,6.068593E2],"categories":[],"categories_nodes":[],"categories_segments":[],"categories_sizes":[],"default_left":[0,0,0,0,0,0,0,0,0,0,0,0,0,0,0,0,0,0,0,0,0,0,0,0,0,0,0,0,0,0,0,0,0,0,0,0,0,0,0,0,0,0,0,0,0,0,0,0,0,0,0,0,0,0,0,0,0,0,0,0,0,0,0,0,0,0,0,0,0,0,0,0,0,0,0,0,0,0,0,0,0,0,0,0,0,0,0,0,0,0,0,0,0,0,0,0,0,0,0,0,0,0,0,0,0,0,0,0,0,0,0,0,0,0,0,0,0,0,0,0,0,0,0,0,0,0,0,0,0,0,0,0,0,0,0,0,0,0,0,0,0,0,0,0,0,0,0,0,0,0,0,0,0,0,0,0,0,0,0,0,0,0,0,0,0,0,0,0,0,0,0,0,0,0,0,0,0,0,0,0,0,0,0,0,0,0,0,0,0,0,0,0,0,0,0,0,0,0,0,0,0,0,0,0,0,0,0,0,0,0,0,0,0,0,0,0,0,0,0,0,0,0,0,0,0,0,0,0,0,0,0,0,0,0,0,0,0,0,0,0,0,0,0,0,0,0,0,0,0,0,0,0,0,0,0,0,0,0,0],"id":0,"left_children":[1,3,5,7,9,11,13,15,17,19,21,23,25,27,29,31,33,-1,35,37,39,-1,-1,41,43,45,47,49,51,53,55,57,59,-1,61,63,65,67,69,71,73,75,77,-1,79,81,83,85,87,89,91,93,95,97,99,101,103,105,107,109,-1,111,113,115,-1,-1,-1,117,119,121,123,-1,-1,-1,-1,125,127,129,131,133,135,137,139,141,143,-1,145,-1,147,149,151,153,155,-1,-1,-1,-1,157,159,161,163,165,167,169,171,-1,-1,173,175,-1,177,179,-1,181,-1,-1,183,185,-1,187,189,191,-1,193,195,197,199,-1,201,203,205,-1,207,-1,-1,209,211,-1,213,215,217,-1,219,-1,221,-1,-1,-1,-1,223,-1,225,227,229,231,-1,-1,233,235,237,239,241,243,245,247,249,-1,251,253,255,-1,257,-1,-1,-1,-1,-1,-1,-1,-1,-1,-1,-1,-1,-1,-1,-1,-1,-1,-1,-1,-1,-1,-1,-1,-1,-1,-1,-1,-1,-1,-1,-1,-1,-1,-1,-1,-1,-1,-1,-1,-1,-1,-1,-1,-1,-1,-1,-1,-1,-1,-1,-1,-1,-1,-1,-1,-1,-1,-1,-1,-1,-1,-1,-1,-1,-1,-1,-1,-1,-1,-1,-1,-1,-1,-1,-1,-1,-1,-1,-1,-1,-1,-1,-1,-1,-1,-1,-1],"loss_changes":[3.6551557E11,6.492324E8,5.3489703E11,5.635932E8,8.6984704E8,3.555697E11,1.5762905E10,3.1648973E8,2.9440768E8,8.349322E8,4.342272E7,2.7923068E11,2.2661995E11,1.12282E10,1.1962485E10,1.7375232E8,7.775278E8,0E0,3.402441E8,3.989013E8,2.4982784E7,0E0,0E0,1.9113537E11,6.255529E10,2.1173476E11,9.567091E7,1.1643818E10,1.6116951E9,2.762924E9,1.6654857E10,9.250406E7,1.4650726E8,0E0,8.017237E8,2.4986026E8,1.5856192E7,1.1188352E8,3.1125344E8,4.467072E6,2.078976E6,6.0596864E9,1.5055244E11,0E0,1.9159908E10,2.290162E11,5.335345E9,3.488768E6,3.5515584E7,6.190487E9,4.7455027E9,5.5968154E8,1.8153062E8,2.6270968E9,2.669568E8,1.2807084E9,1.9873448E10,4.54656E6,1.7589453E8,8.196442E7,0E0,1.6682075E8,7.511539E7,1.68283E8,0E0,0E0,0E0,8.97792E6,1.1195069E8,4.491079E7,1.4196006E8,0E0,0E0,0E0,0E0,2.1848835E9,1.497088E7,1.9928196E9,5.039666E10,2.0111536E7,3.5154133E10,1.7242205E8,1.37137226E11,2.398558E8,1.0988646E9,0E0,1.425856E6,0E0,1.062818E6,4.0067584E7,3.187783E9,6.041036E9,1.1861696E7,0E0,0E0,0E0,0E0,2.4019384E9,7.22429E8,2.898002E8,3.836905E8,1.1694189E8,9.8328045E8,8.30149E8,1.0430956E10,0E0,0E0,5.65248E6,1.3507174E8,0E0,8.297981E7,5.039171E7,0E0,1.3381456E7,0E0,0E0,1.20687384E8,1.171104E7,0E0,2.034449E7,9.370368E6,7.027211E7,0E0,3.04592E6,1.027786E7,1.7972657E9,1.5383629E8,0E0,5.582848E6,2.3267758E8,1.3289093E9,0E0,4.2458776E10,0E0,0E0,6.3974605E8,4.3779686E9,0E0,1.5395762E8,1.0674687E11,1.4587527E10,0E0,1.9676538E8,0E0,3.5474534E8,0E0,0E0,0E0,0E0,1.3954816E7,0E0,1.8004931E8,1.06640026E9,2.0502344E9,7.353736E7,0E0,0E0,1.0394317E9,8.017994E8,1.2974307E8,8.021069E7,1.2192973E8,1.928448E8,1.9669326E8,4.990131E7,3.6083456E7,0E0,5.1865834E8,4.306478E8,8.592046E8,0E0,1.1145826E10,0E0,0E0,0E0,0E0,0E0,0E0,0E0,0E0,0E0,0E0,0E0,0E0,0E0,0E0,0E0,0E0,0E0,0E0,0E0,0E0,0E0,0E0,0E0,0E0,0E0,0E0,0E0,0E0,0E0,0E0,0E0,0E0,0E0,0E0,0E0,0E0,0E0,0E0,0E0,0E0,0E0,0E0,0E0,0E0,0E0,0E0,0E0,0E0,0E0,0E0,0E0,0E0,0E0,0E0,0E0,0E0,0E0,0E0,0E0,0E0,0E0,0E0,0E0,0E0,0E0,0E0,0E0,0E0,0E0,0E0,0E0,0E0,0E0,0E0,0E0,0E0,0E0,0E0,0E0,0E0,0E0,0E0,0E0,0E0,0E0,0E0,0E0],"parents":[2147483647,0,0,1,1,2,2,3,3,4,4,5,5,6,6,7,7,8,8,9,9,10,10,11,11,12,12,13,13,14,14,15,15,16,16,18,18,19,19,20,20,23,23,24,24,25,25,26,26,27,27,28,28,29,29,30,30,31,31,32,32,34,34,35,35,36,36,37,37,38,38,39,39,40,40,41,41,42,42,44,44,45,45,46,46,47,47,48,48,49,49,50,50,51,51,52,52,53,53,54,54,55,55,56,56,57,57,58,58,59,59,61,61,62,62,63,63,67,67,68,68,69,69,70,70,75,75,76,76,77,77,78,78,79,79,80,80,81,81,82,82,83,83,84,84,86,86,88,88,89,89,90,90,91,91,92,92,97,97,98,98,99,99,100,100,101,101,102,102,103,103,104,104,107,107,108,108,110,110,111,111,113,113,116,116,117,117,119,119,120,120,121,121,123,123,124,124,125,125,126,126,128,128,129,129,130,130,132,132,135,135,136,136,138,138,139,139,140,140,142,142,144,144,149,149,151,151,152,152,153,153,154,154,157,157,158,158,159,159,160,160,161,161,162,162,163,163,164,164,165,165,167,167,168,168,169,169,171,171],"right_children":[2,4,6,8,10,12,14,16,18,20,22,24,26,28,30,32,34,-1,36,38,40,-1,-1,42,44,46,48,50,52,54,56,58,60,-1,62,64,66,68,70,72,74,76,78,-1,80,82,84,86,88,90,92,94,96,98,100,102,104,106,108,110,-1,112,114,116,-1,-1,-1,118,120,122,124,-1,-1,-1,-1,126,128,130,132,134,136,138,140,142,144,-1,146,-1,148,150,152,154,156,-1,-1,-1,-1,158,160,162,164,166,168,170,172,-1,-1,174,176,-1,178,180,-1,182,-1,-1,184,186,-1,188,190,192,-1,194,196,198,200,-1,202,204,206,-1,208,-1,-1,210,212,-1,214,216,218,-1,220,-1,222,-1,-1,-1,-1,224,-1,226,228,230,232,-1,-1,234,236,238,240,242,244,246,248,250,-1,252,254,256,-1,258,-1,-1,-1,-1,-1,-1,-1,-1,-1,-1,-1,-1,-1,-1,-1,-1,-1,-1,-1,-1,-1,-1,-1,-1,-1,-1,-1,-1,-1,-1,-1,-1,-1,-1,-1,-1,-1,-1,-1,-1,-1,-1,-1,-1,-1,-1,-1,-1,-1,-1,-1,-1,-1,-1,-1,-1,-1,-1,-1,-1,-1,-1,-1,-1,-1,-1,-1,-1,-1,-1,-1,-1,-1,-1,-1,-1,-1,-1,-1,-1,-1,-1,-1,-1,-1,-1,-1],"split_conditions":[1E0,1E0,1.8E1,1E0,1E0,1E0,2.2E1,1E0,1E0,1.7E1,7E0,1E0,1E0,1E0,4.4E1,1E0,4E0,-3.3756674E2,3E0,4E0,2E1,-2.847071E2,-3.4591537E2,1E0,1E0,1E0,4E0,1E0,4E0,2.8E1,1E0,4E0,1.6E1,-3.3163058E2,8E0,1E0,4E0,8E0,7E0,4E0,2.6E1,1E0,1E0,-3.3216696E2,-1E0,1E0,4E0,3E0,1E1,1E0,1E0,2E1,2.1E1,1E0,1E0,4E0,4E0,5E0,1E0,4E0,-3.3016074E2,1E0,2.2E1,-1E0,-3.1206503E2,-1.9838776E2,-3.0422757E2,1E0,1.3E1,1E0,1.3E1,-2.5370793E2,-1.7302269E2,-2.840211E2,-3.2460754E2,1E0,4E0,7E0,1E0,4E0,3E0,-1E0,6E0,-1E0,-1E0,-3.0944568E2,1E1,-2.1391447E2,1.5E1,1E0,1E0,1E0,4E0,1.180784E3,6.2469995E2,1.9932444E3,9.563927E2,1E0,4E0,1E0,3.1E1,1E0,1E0,1E0,1E0,-3.3542563E2,-3.4727792E2,1E0,2E1,-2.648573E2,1E0,-1E0,-3.0778024E2,1E1,-3.0532004E2,-3.271456E2,1E0,3E0,-3.1677396E2,2E0,2E0,2E0,-3.0780524E2,8E0,1.6E1,1E0,4E0,-3.4867917E2,1E0,1E0,1.5E1,-2.9306174E2,4E0,-7.762703E1,1.16644775E2,3E0,4E0,-3.1389264E2,1E0,-1E0,1.5E1,-3.0101974E2,1.4E1,-2.4667403E2,1.5E1,-2.863676E2,-2.2012093E2,-5.126731E1,-9.625277E1,4E0,-3.4301837E2,4E0,4E0,2E1,4E0,-2.8389655E2,-1.5225249E2,1E0,1E0,2.4E1,2.5E1,1E0,4E0,4E0,4E0,1E0,-3.197124E2,1E0,1E0,1E0,-2.807535E2,1E0,-1.8807402E2,-3.4747397E2,-3.3186752E2,-2.5909277E2,-3.3539697E2,-9.568926E1,-3.3327258E2,-7.214272E1,2.0079536E2,-6.6052765E1,-1.87851E2,1.2593607E2,-6.691527E1,-1.6315233E2,-2.2790923E2,-5.8766182E1,5.332208E1,-2.0921822E2,-1.3159158E2,9.842861E1,-1.3823857E2,1.9061339E2,4.2616574E2,1.2191361E2,-6.1139455E0,1.5760063E2,-9.622397E1,-3.2226083E2,-1.4614087E2,-3.2541782E2,-2.719974E2,-3.3644028E2,-2.3184822E1,6.5897723E2,-4.5134758E1,2.9964392E3,5.8134136E3,5.047715E3,4.0599075E3,2.355399E3,3.1403552E3,-3.2752557E2,1.0755362E1,1.7627087E2,5.803289E3,3.2504158E3,2.1000605E3,2.089844E2,-2.769663E1,1.3458682E3,5.7208606E2,-2.985991E2,-2.3728116E2,-1.3910551E2,2.717261E2,7.352783E2,1.7501344E3,1.3487184E3,6.8897186E2,-2.1553441E2,6.772191E1,-3.3881577E2,-5.8630627E1,5.3974567E1,-2.8307242E2,2.5245947E2,3.665057E1,7.8586584E2,4.4185767E2,-3.4684622E2,-2.8719852E2,-3.0047177E2,-2.0978862E2,-1.345302E2,1.9929071E2,-3.0354285E2,-2.1169775E2,-1.2325221E2,-3.1899893E2,-1.5589886E2,7.0654553E2,1.102107E3,-1.5153662E2,9.08213E2,-1.6224394E2,6.1479917E3,6.068593E2],"split_indices":[4,25,1,34,15,32,1,31,32,1,1,24,11,24,1,17,0,0,1,0,1,0,0,15,22,10,0,32,0,1,32,0,1,0,1,5,1,1,1,0,1,18,25,0,1,22,0,0,1,25,11,1,1,24,24,0,0,1,18,0,0,20,1,1,0,0,0,20,1,20,1,0,0,0,0,17,0,1,22,0,1,1,1,1,1,0,1,0,1,18,15,10,0,0,0,0,0,32,0,32,1,18,33,11,11,0,0,32,1,0,20,1,0,1,0,0,1,1,0,0,0,1,0,1,1,16,0,0,27,22,1,0,0,0,0,0,0,0,34,1,1,0,1,0,1,0,0,0,0,0,0,0,0,1,0,0,0,25,11,1,1,25,0,0,0,17,0,24,16,10,0,10,0,0,0,0,0,0,0,0,0,0,0,0,0,0,0,0,0,0,0,0,0,0,0,0,0,0,0,0,0,0,0,0,0,0,0,0,0,0,0,0,0,0,0,0,0,0,0,0,0,0,0,0,0,0,0,0,0,0,0,0,0,0,0,0,0,0,0,0,0,0,0,0,0,0,0,0,0,0,0,0,0,0,0,0,0,0,0],"split_type":[0,0,0,0,0,0,0,0,0,0,0,0,0,0,0,0,0,0,0,0,0,0,0,0,0,0,0,0,0,0,0,0,0,0,0,0,0,0,0,0,0,0,0,0,0,0,0,0,0,0,0,0,0,0,0,0,0,0,0,0,0,0,0,0,0,0,0,0,0,0,0,0,0,0,0,0,0,0,0,0,0,0,0,0,0,0,0,0,0,0,0,0,0,0,0,0,0,0,0,0,0,0,0,0,0,0,0,0,0,0,0,0,0,0,0,0,0,0,0,0,0,0,0,0,0,0,0,0,0,0,0,0,0,0,0,0,0,0,0,0,0,0,0,0,0,0,0,0,0,0,0,0,0,0,0,0,0,0,0,0,0,0,0,0,0,0,0,0,0,0,0,0,0,0,0,0,0,0,0,0,0,0,0,0,0,0,0,0,0,0,0,0,0,0,0,0,0,0,0,0,0,0,0,0,0,0,0,0,0,0,0,0,0,0,0,0,0,0,0,0,0,0,0,0,0,0,0,0,0,0,0,0,0,0,0,0,0,0,0,0,0,0,0,0,0,0,0,0,0,0,0,0,0,0,0,0,0,0,0],"sum_hessian":[2.8286E4,1.5577E4,1.2709E4,1.3963E4,1.614E3,5.572E3,7.137E3,1.3526E4,4.37E2,7.87E2,8.27E2,3.778E3,1.794E3,1.059E3,6.078E3,1.2594E4,9.32E2,1.36E2,3.01E2,4.2E2,3.67E2,1.87E2,6.4E2,3.159E3,6.19E2,1.503E3,2.91E2,9.52E2,1.07E2,5.769E3,3.09E2,1.2004E4,5.9E2,6.71E2,2.61E2,1.75E2,1.26E2,3.07E2,1.13E2,7.4E1,2.93E2,2.562E3,5.97E2,6.8E1,5.51E2,1.21E3,2.93E2,2.14E2,7.7E1,6.46E2,3.06E2,8.1E1,2.6E1,1.54E3,4.229E3,2.28E2,8.1E1,8.058E3,3.946E3,2.84E2,3.06E2,8.2E1,1.79E2,1.42E2,3.3E1,2.6E1,1E2,1.56E2,1.51E2,5.9E1,5.4E1,5.4E1,2E1,1.16E2,1.77E2,1.394E3,1.168E3,2.86E2,3.11E2,2.2E1,5.29E2,1.67E2,1.043E3,2.24E2,6.9E1,1.42E2,7.2E1,4.7E1,3E1,5.3E2,1.16E2,2.51E2,5.5E1,4E1,4.1E1,2.1E1,5E0,1.377E3,1.63E2,3.79E3,4.39E2,1.71E2,5.7E1,5.6E1,2.5E1,1.422E3,6.636E3,2.91E3,1.036E3,1.94E2,9E1,7.5E1,7E0,8.1E1,9.8E1,1.4E1,1.28E2,1.47E2,9E0,6.7E1,8.4E1,5.2E1,7E0,2.6E1,2.8E1,1.114E3,2.8E2,8.48E2,3.2E2,1.59E2,1.27E2,3.4E1,2.77E2,1.5E1,7E0,1.1E2,4.19E2,2.3E1,1.44E2,4.23E2,6.2E2,1.1E1,2.13E2,5E0,6.4E1,3.9E1,3.3E1,1.8E1,1.2E1,2.8E2,2.5E2,5.7E1,5.9E1,1.96E2,5.5E1,4.2E1,1.3E1,9.18E2,4.59E2,1.25E2,3.8E1,2.549E3,1.241E3,8.9E1,3.5E2,1.13E2,5.8E1,3.8E1,1.9E1,4.6E1,1E1,2E1,5E0,1.179E3,1.731E3,6.35E2,4.01E2,7.2E1,1.8E1,7E0,6.8E1,1.2E1,6.9E1,6.2E1,6.6E1,7.1E1,7.6E1,2.5E1,4.2E1,3E1,5.4E1,1.9E1,3.3E1,3E0,2.3E1,1.9E1,9E0,5.62E2,5.52E2,2.12E2,6.8E1,2.52E2,6.8E1,2.8E1,1.31E2,8.9E1,3.8E1,2.02E2,7.5E1,5.5E1,5.5E1,3.09E2,1.1E2,1.4E1,1.3E2,3.7E1,3.86E2,4.65E2,1.55E2,1.69E2,4.4E1,5.5E1,9E0,1.99E2,8.1E1,4.4E1,1.3E1,4.5E1,1.4E1,9.8E1,9.8E1,4.4E1,1.1E1,7.57E2,1.61E2,3.73E2,8.6E1,4.1E1,8.4E1,1.6E1,2.2E1,2.094E3,4.55E2,9.09E2,3.32E2,6.6E1,2.3E1,2.58E2,9.2E1,1.03E2,1E1,3E1,8E0,1.6E1,3E0,3.7E1,9E0,1.5E1,5E0],"tree_param":{"num_deleted":"0","num_feature":"37","num_nodes":"259","size_leaf_vector":"1"}},{"base_weights":[-4.0134018E1,-2.89341E3,3.4686426E3,-2.7047786E3,-3.0748113E3,1.0079605E4,-1.6360421E3,-2.802709E3,-1.5637638E3,-3.099932E3,-2.8600132E3,5.0905522E3,2.052564E4,1.3160906E3,-2.2953145E3,-2.939527E3,-2.4904673E3,-3.3139142E2,-8.5042224E2,-3.135538E2,-3.0219758E3,-2.3490635E3,-2.9876768E3,1.7660857E3,2.2483082E4,2.5490393E4,-7.17393E3,2.6930718E3,-3.1015292E2,-2.5123706E3,1.9971644E3,-2.7361562E3,-3.0192417E3,-2.6570747E3,1.532279E2,-1.4835269E3,7.624156E2,-3.0470952E3,-2.5646997E3,-3.232878E2,-1.7790208E3,-2.7793005E3,-3.074089E2,-1.428847E3,1.540838E4,2.6032426E4,-3.193748E2,3.2428602E4,-7.314134E3,-8.81581E3,-6.218941E3,3.2363574E3,-4.250244E2,-1.7603593E3,-2.8072244E3,-8.4735065E2,9.1013545E3,-2.930104E3,-2.0287859E3,-3.0433486E3,-2.4499173E2,-3.0204912E3,-2.278266E3,-3.110766E2,4.330742E3,-1.8650204E3,-7.759123E2,-2.7550894E2,2.1848801E3,-2.90849E3,-3.087326E2,-1.9494877E3,-2.740305E2,-2.0218688E3,-9.353513E2,-3.146549E2,-2.6367144E3,-2.4417158E3,2.7786643E3,1.7567168E4,-2.8784888E2,1.4082056E2,2.720904E4,4.172404E4,-7.4280693E3,-8.628394E3,-6.430716E3,-3.076466E2,-9.091296E2,-6.466322E2,-5.355092E2,1.5892837E3,6.216239E3,-1.341389E3,-3.1320297E2,-2.92856E3,-2.4692666E3,-1.93117E3,5.004658E3,3.9008052E3,2.2046184E4,-2.9639724E3,-2.2757925E3,-3.045476E2,-1.5710562E3,-3.0607007E2,-2.8115627E3,-3.17985E2,-2.8635474E3,-2.398088E3,-3.6308575E2,6.6568867E3,8.54923E2,-1.5471024E3,-2.122078E3,-1.3437569E2,-3.8294345E2,6.045449E2,-9.185128E2,2.9802192E3,1.1328086E3,-3.1488934E2,-2.6799246E3,-3.062973E2,-1.0850248E3,-1.1125928E3,-2.2565515E2,-1.8853496E2,-5.560844E2,-2.8018576E2,-2.1941081E2,-3.004392E3,-8.730988E2,5.931801E3,1.5950951E3,1.4320808E4,2.7777697E4,-6.2487585E2,2.542056E2,3.911707E4,2.3282654E4,5.8317234E4,-2.3766616E3,-9.076675E3,-6.452853E2,-3.3572357E2,-9.1534393E2,-6.665078E2,-5.45248E2,5.1361035E2,5.623251E3,8.648683E3,-4.2299716E2,-1.7548636E3,-2.5741388E2,-3.0088555E3,-2.7276833E3,-2.727433E3,-1.8221144E3,-2.2970786E3,3.2684143E1,1.728732E3,1.3184388E3,5.787088E3,-3.969393E2,3.0716479E4,-7.639067E2,-2.8965955E2,-3.1702478E2,-2.9380283E2,-2.0766177E2,-2.9946872E2,-1.4388881E2,-3.1488315E2,-2.5313016E2,-2.5616354E2,-3.038232E2,-2.772822E2,-1.670267E2,-2.6572394E2,-1.5176696E1,1.061991E2,7.164071E2,2.4640433E2,4.740028E0,-2.904919E2,-1.404463E2,-2.3800084E2,-1.8255641E2,-1.8639292E1,-5.7980183E1,-2.3469446E2,8.8902504E1,-3.206303E1,-1.02892845E2,1.886925E2,3.3068588E2,1.2874419E2,7.320373E1,-2.7357947E2,-1.7705872E2,2.112721E1,-1.341285E2,-1.2586761E2,-5.8629955E1,6.326872E1,-9.945208E1,-3.1083115E2,-2.522377E2,-1.8304602E2,1.683583E2,-1.987788E2,7.167189E2,7.68859E1,3.1747348E2,-3.919636E2,1.5026981E3,-3.317286E2,2.906869E3,-2.2342978E1,-1.14893555E2,4.3462554E3,3.2044863E3,2.0967788E3,2.9800713E3,7.353247E3,-4.3872852E1,-2.6210263E2,-1.6642857E2,-1.8278796E2,-9.1404504E2,-6.3412598E1,3.2015158E2,7.822584E2,1.6282678E2,1.2896488E3,-2.2523033E2,-1.6118913E2,-3.4550095E2,-6.786476E-1,-3.3649225E2,-3.057934E2,-2.710796E2,-2.6208334E2,-3.1949582E2,-2.8371594E2,-1.9294841E2,-1.536592E2,-3.225196E2,-2.6346063E2,-7.926023E1,-1.183089E2,3.8490164E2,1.056684E1,2.3908365E2,8.473296E2,-4.0186374E2,3.8775203E3,-7.182861E2],"categories":[],"categories_nodes":[],"categories_segments":[],"categories_sizes":[],"default_left":[0,0,0,0,0,0,0,0,0,0,0,0,0,0,0,0,0,0,0,0,0,0,0,0,0,0,0,0,0,0,0,0,0,0,0,0,0,0,0,0,0,0,0,0,0,0,0,0,0,0,0,0,0,0,0,0,0,0,0,0,0,0,0,0,0,0,0,0,0,0,0,0,0,0,0,0,0,0,0,0,0,0,0,0,0,0,0,0,0,0,0,0,0,0,0,0,0,0,0,0,0,0,0,0,0,0,0,0,0,0,0,0,0,0,0,0,0,0,0,0,0,0,0,0,0,0,0,0,0,0,0,0,0,0,0,0,0,0,0,0,0,0,0,0,0,0,0,0,0,0,0,0,0,0,0,0,0,0,0,0,0,0,0,0,0,0,0,0,0,0,0,0,0,0,0,0,0,0,0,0,0,0,0,0,0,0,0,0,0,0,0,0,0,0,0,0,0,0,0,0,0,0,0,0,0,0,0,0,0,0,0,0,0,0,0,0,0,0,0,0,0,0,0,0,0,0,0,0,0,0,0,0,0,0,0,0,0,0,0,0,0,0,0,0,0,0,0,0,0,0,0,0,0,0,0,0,0,0,0],"id":1,"left_children":[1,3,5,7,9,11,13,15,17,19,21,23,25,27,29,31,33,-1,35,-1,37,39,41,43,45,47,49,51,-1,53,55,57,59,61,63,65,67,69,71,-1,73,75,-1,77,79,81,-1,83,85,87,89,91,-1,93,95,97,99,101,103,105,-1,107,109,-1,111,113,115,117,119,121,-1,123,-1,125,127,-1,129,131,133,135,-1,137,139,141,143,145,147,-1,-1,-1,-1,149,151,153,-1,155,157,159,161,163,165,167,169,-1,171,-1,173,-1,175,177,179,181,183,185,187,-1,189,191,193,195,197,-1,199,-1,201,203,-1,-1,205,-1,-1,207,209,211,213,215,217,219,-1,221,223,225,227,229,-1,-1,-1,-1,-1,231,233,235,-1,237,239,241,243,245,247,249,251,253,-1,255,-1,257,-1,-1,-1,-1,-1,-1,-1,-1,-1,-1,-1,-1,-1,-1,-1,-1,-1,-1,-1,-1,-1,-1,-1,-1,-1,-1,-1,-1,-1,-1,-1,-1,-1,-1,-1,-1,-1,-1,-1,-1,-1,-1,-1,-1,-1,-1,-1,-1,-1,-1,-1,-1,-1,-1,-1,-1,-1,-1,-1,-1,-1,-1,-1,-1,-1,-1,-1,-1,-1,-1,-1,-1,-1,-1,-1,-1,-1,-1,-1,-1,-1,-1,-1,-1,-1,-1,-1,-1,-1,-1,-1,-1,-1],"loss_changes":[2.839264E11,5.2688486E8,4.292431E11,8.5333606E8,3.411968E7,2.8872147E11,1.3973273E10,2.9462938E8,7.574908E8,1.0289152E7,4.8231936E7,2.1690424E11,2.4648385E11,7.9831383E9,5.4722847E9,7.131546E7,9.517988E8,0E0,4.4428637E8,0E0,1.8143232E7,8.191187E7,3.592192E6,1.3736218E11,5.4946955E10,3.459686E11,3.7323366E8,3.7859594E9,0E0,1.233662E9,5.7265695E9,1.8516582E8,4.081664E7,2.7285504E8,1.772436E9,8.277741E7,1.8220048E8,2.93888E6,8.054144E6,0E0,2.0236256E7,2.595328E6,0E0,1.0891055E10,2.3658086E10,1.6111829E10,0E0,4.6489836E11,2.5334989E8,1.269801E8,2.983424E6,4.5448223E9,0E0,9.015086E8,1.5724749E8,1.2971965E9,5.3669396E9,1.7431552E7,1.3622234E8,4.947968E6,0E0,1.6755712E7,2.2838016E8,0E0,4.551685E8,1.322496E7,2.4254536E7,4.1298504E7,4.013517E7,1.8925312E7,0E0,2.6516168E7,0E0,1.5200896E7,8.319462E6,0E0,5.254912E6,1.814699E9,1.8415882E9,1.7335878E10,0E0,4.5715284E7,2.2747578E10,7.443504E11,3.2407245E8,2.5709978E8,1.028608E6,0E0,0E0,0E0,0E0,2.596311E9,8.4218245E9,5.414172E8,0E0,3.930931E7,1.7313075E8,1.236727E8,8.3468576E8,8.9885094E8,6.1543813E9,5.188608E6,1.549056E6,0E0,3.539248E7,0E0,1.537664E7,0E0,2.022144E7,2.5174323E8,2.8684584E7,8.887168E7,3.1068834E7,1.412592E7,3.991424E6,0E0,2.484334E6,2.8115336E7,2.442748E6,4.11648E6,5.44888E5,0E0,8.466816E6,0E0,6.594972E6,7.2281E5,0E0,0E0,1.1053235E7,0E0,0E0,6.804685E7,1.3370611E9,1.3350548E9,4.7002528E8,5.314314E9,5.2347863E9,3.740546E6,0E0,2.4180163E9,5.1540296E9,6.6068755E11,4.420608E7,2.3049728E7,0E0,0E0,0E0,0E0,0E0,1.4643235E9,1.0943363E9,1.2438856E10,0E0,2.0712064E8,2.6088414E8,2.2358016E7,3.416576E7,6.1067776E7,1.1803181E8,7.154317E7,1.3446797E8,2.5538672E7,0E0,1.2983816E9,0E0,5.776084E9,0E0,0E0,0E0,0E0,0E0,0E0,0E0,0E0,0E0,0E0,0E0,0E0,0E0,0E0,0E0,0E0,0E0,0E0,0E0,0E0,0E0,0E0,0E0,0E0,0E0,0E0,0E0,0E0,0E0,0E0,0E0,0E0,0E0,0E0,0E0,0E0,0E0,0E0,0E0,0E0,0E0,0E0,0E0,0E0,0E0,0E0,0E0,0E0,0E0,0E0,0E0,0E0,0E0,0E0,0E0,0E0,0E0,0E0,0E0,0E0,0E0,0E0,0E0,0E0,0E0,0E0,0E0,0E0,0E0,0E0,0E0,0E0,0E0,0E0,0E0,0E0,0E0,0E0,0E0,0E0,0E0,0E0,0E0,0E0,0E0,0E0,0E0,0E0,0E0,0E0,0E0,0E0,0E0],"parents":[2147483647,0,0,1,1,2,2,3,3,4,4,5,5,6,6,7,7,8,8,9,9,10,10,11,11,12,12,13,13,14,14,15,15,16,16,18,18,20,20,21,21,22,22,23,23,24,24,25,25,26,26,27,27,29,29,30,30,31,31,32,32,33,33,34,34,35,35,36,36,37,37,38,38,40,40,41,41,43,43,44,44,45,45,47,47,48,48,49,49,50,50,51,51,53,53,54,54,55,55,56,56,57,57,58,58,59,59,61,61,62,62,64,64,65,65,66,66,67,67,68,68,69,69,71,71,73,73,74,74,76,76,77,77,78,78,79,79,81,81,82,82,83,83,84,84,85,85,86,86,91,91,92,92,93,93,95,95,96,96,97,97,98,98,99,99,100,100,101,101,102,102,104,104,106,106,108,108,109,109,110,110,111,111,112,112,113,113,114,114,116,116,117,117,118,118,119,119,120,120,122,122,124,124,125,125,128,128,131,131,132,132,133,133,134,134,135,135,136,136,137,137,139,139,140,140,141,141,142,142,143,143,149,149,150,150,151,151,153,153,154,154,155,155,156,156,157,157,158,158,159,159,160,160,161,161,163,163,165,165],"right_children":[2,4,6,8,10,12,14,16,18,20,22,24,26,28,30,32,34,-1,36,-1,38,40,42,44,46,48,50,52,-1,54,56,58,60,62,64,66,68,70,72,-1,74,76,-1,78,80,82,-1,84,86,88,90,92,-1,94,96,98,100,102,104,106,-1,108,110,-1,112,114,116,118,120,122,-1,124,-1,126,128,-1,130,132,134,136,-1,138,140,142,144,146,148,-1,-1,-1,-1,150,152,154,-1,156,158,160,162,164,166,168,170,-1,172,-1,174,-1,176,178,180,182,184,186,188,-1,190,192,194,196,198,-1,200,-1,202,204,-1,-1,206,-1,-1,208,210,212,214,216,218,220,-1,222,224,226,228,230,-1,-1,-1,-1,-1,232,234,236,-1,238,240,242,244,246,248,250,252,254,-1,256,-1,258,-1,-1,-1,-1,-1,-1,-1,-1,-1,-1,-1,-1,-1,-1,-1,-1,-1,-1,-1,-1,-1,-1,-1,-1,-1,-1,-1,-1,-1,-1,-1,-1,-1,-1,-1,-1,-1,-1,-1,-1,-1,-1,-1,-1,-1,-1,-1,-1,-1,-1,-1,-1,-1,-1,-1,-1,-1,-1,-1,-1,-1,-1,-1,-1,-1,-1,-1,-1,-1,-1,-1,-1,-1,-1,-1,-1,-1,-1,-1,-1,-1,-1,-1,-1,-1,-1,-1,-1,-1,-1,-1,-1,-1],"split_conditions":[1E0,1.6E1,1.8E1,1E0,1E0,1E0,2.3E1,4E0,1E0,4E0,2E1,1E0,1E0,1E0,4.4E1,3E0,1E0,-3.3139142E2,4E0,-3.135538E2,1E0,1E0,2.6E1,1E0,1E0,1E0,6E0,1E0,-3.1015292E2,2.9E1,1E0,1E0,1E0,1E0,1E0,1E1,9E0,2.1E1,2.2E1,-3.232878E2,4E0,1E0,-3.074089E2,1E0,1E0,-1E0,-3.193748E2,1E0,6E0,-1E0,1.5E1,1E0,-4.250244E2,1E0,4E0,1E0,4E0,1E0,1E0,1E0,-2.4499173E2,1E0,1E0,-3.110766E2,9E0,4E0,2E0,3E0,1.3E1,1E0,-3.087326E2,1E0,-2.740305E2,1.7E1,1.7E1,-3.146549E2,4E0,1E0,4E0,4E0,-2.8784888E2,4E0,4E0,1E0,6E0,-1E0,1.5E1,-3.076466E2,-9.091296E2,-6.466322E2,-5.355092E2,1E0,1E0,4E0,-3.1320297E2,1E0,1E0,1E0,4E0,1E0,1E0,1E0,-1E0,-3.045476E2,-1E0,-3.0607007E2,1E0,-3.17985E2,4E0,1E0,-1E0,-1E0,1.1E1,-1E0,7E0,-1.3437569E2,1.3E1,-1E0,4E0,1E1,1.5E1,-3.1488934E2,1E0,-3.062973E2,1.7E1,3E0,-2.2565515E2,-1.8853496E2,1.8E1,-2.8018576E2,-2.1941081E2,1E0,4E0,-1E0,1.3E1,-1E0,-1E0,3E0,2.542056E2,2E0,4E0,1E0,4E0,-1E0,-6.452853E2,-3.3572357E2,-9.1534393E2,-6.665078E2,-5.45248E2,1E0,2.1E1,1E0,-4.2299716E2,1E0,1E0,1E0,1E0,1E0,1E0,1E0,4E0,2E0,1.3184388E3,1E0,-3.969393E2,1E0,-7.639067E2,-2.8965955E2,-3.1702478E2,-2.9380283E2,-2.0766177E2,-2.9946872E2,-1.4388881E2,-3.1488315E2,-2.5313016E2,-2.5616354E2,-3.038232E2,-2.772822E2,-1.670267E2,-2.6572394E2,-1.5176696E1,1.061991E2,7.164071E2,2.4640433E2,4.740028E0,-2.904919E2,-1.404463E2,-2.3800084E2,-1.8255641E2,-1.8639292E1,-5.7980183E1,-2.3469446E2,8.8902504E1,-3.206303E1,-1.02892845E2,1.886925E2,3.3068588E2,1.2874419E2,7.320373E1,-2.7357947E2,-1.7705872E2,2.112721E1,-1.341285E2,-1.2586761E2,-5.8629955E1,6.326872E1,-9.945208E1,-3.1083115E2,-2.522377E2,-1.8304602E2,1.683583E2,-1.987788E2,7.167189E2,7.68859E1,3.1747348E2,-3.919636E2,1.5026981E3,-3.317286E2,2.906869E3,-2.2342978E1,-1.14893555E2,4.3462554E3,3.2044863E3,2.0967788E3,2.9800713E3,7.353247E3,-4.3872852E1,-2.6210263E2,-1.6642857E2,-1.8278796E2,-9.1404504E2,-6.3412598E1,3.2015158E2,7.822584E2,1.6282678E2,1.2896488E3,-2.2523033E2,-1.6118913E2,-3.4550095E2,-6.786476E-1,-3.3649225E2,-3.057934E2,-2.710796E2,-2.6208334E2,-3.1949582E2,-2.8371594E2,-1.9294841E2,-1.536592E2,-3.225196E2,-2.6346063E2,-7.926023E1,-1.183089E2,3.8490164E2,1.056684E1,2.3908365E2,8.473296E2,-4.0186374E2,3.8775203E3,-7.182861E2],"split_indices":[4,1,1,16,16,32,1,0,2,0,1,14,7,18,1,1,19,0,0,0,19,2,1,15,23,8,1,7,0,1,32,3,17,2,2,1,1,1,1,0,0,2,0,13,23,1,0,9,1,1,1,32,0,18,0,13,0,17,32,19,0,32,17,0,1,1,0,1,1,2,0,2,0,1,1,0,0,16,1,0,0,0,1,11,1,1,1,0,0,0,0,14,8,0,0,32,32,14,0,7,7,6,1,0,1,0,2,0,1,18,1,1,1,1,1,0,1,1,1,1,1,0,17,0,1,0,0,0,1,0,0,17,0,1,1,1,1,0,0,1,0,23,0,1,0,0,0,0,0,15,1,11,0,7,9,13,7,13,7,15,0,0,0,9,0,9,0,0,0,0,0,0,0,0,0,0,0,0,0,0,0,0,0,0,0,0,0,0,0,0,0,0,0,0,0,0,0,0,0,0,0,0,0,0,0,0,0,0,0,0,0,0,0,0,0,0,0,0,0,0,0,0,0,0,0,0,0,0,0,0,0,0,0,0,0,0,0,0,0,0,0,0,0,0,0,0,0,0,0,0,0,0,0,0,0,0,0,0,0],"split_type":[0,0,0,0,0,0,0,0,0,0,0,0,0,0,0,0,0,0,0,0,0,0,0,0,0,0,0,0,0,0,0,0,0,0,0,0,0,0,0,0,0,0,0,0,0,0,0,0,0,0,0,0,0,0,0,0,0,0,0,0,0,0,0,0,0,0,0,0,0,0,0,0,0,0,0,0,0,0,0,0,0,0,0,0,0,0,0,0,0,0,0,0,0,0,0,0,0,0,0,0,0,0,0,0,0,0,0,0,0,0,0,0,0,0,0,0,0,0,0,0,0,0,0,0,0,0,0,0,0,0,0,0,0,0,0,0,0,0,0,0,0,0,0,0,0,0,0,0,0,0,0,0,0,0,0,0,0,0,0,0,0,0,0,0,0,0,0,0,0,0,0,0,0,0,0,0,0,0,0,0,0,0,0,0,0,0,0,0,0,0,0,0,0,0,0,0,0,0,0,0,0,0,0,0,0,0,0,0,0,0,0,0,0,0,0,0,0,0,0,0,0,0,0,0,0,0,0,0,0,0,0,0,0,0,0,0,0,0,0,0,0,0,0,0,0,0,0,0,0,0,0,0,0,0,0,0,0,0,0],"sum_hessian":[2.8358E4,1.564E4,1.2718E4,7.675E3,7.965E3,5.541E3,7.177E3,7.067E3,6.08E2,7.119E3,8.46E2,3.751E3,1.79E3,1.31E3,5.867E3,4.908E3,2.159E3,1.75E2,4.33E2,4.86E3,2.259E3,1.73E2,6.73E2,3.15E3,6.01E2,1.518E3,2.72E2,9.99E2,3.11E2,5.585E3,2.82E2,1.392E3,3.516E3,2.031E3,1.28E2,3.11E2,1.22E2,2.136E3,1.23E2,6.6E1,1.07E2,2.07E2,4.66E2,2.553E3,5.97E2,5.28E2,7.3E1,1.253E3,2.65E2,9.7E1,1.75E2,9.27E2,7.2E1,1.575E3,4.01E3,2.02E2,8E1,1.09E3,3.02E2,3.369E3,1.47E2,1.033E3,9.98E2,7.2E1,5.6E1,2.01E2,1.1E2,7.1E1,5.1E1,4.97E2,1.639E3,3E1,9.3E1,8.2E1,2.5E1,5.2E1,1.55E2,2.058E3,4.95E2,5.34E2,6.3E1,2.3E1,5.05E2,1.016E3,2.37E2,1.03E2,1.62E2,5E0,9.2E1,1.31E2,4.4E1,5.98E2,3.29E2,1.208E3,3.67E2,2.945E3,1.065E3,1.71E2,3.1E1,5.8E1,2.2E1,1.033E3,5.7E1,9.2E1,2.1E2,3.123E3,2.46E2,5.03E2,5.3E2,9.39E2,5.9E1,3.3E1,2.3E1,9.3E1,1.08E2,4.4E1,6.6E1,3E1,4.1E1,2.8E1,2.3E1,2.36E2,2.61E2,1.2E1,1.8E1,1.8E1,6.4E1,6E0,1.9E1,1.09E2,4.6E1,1.514E3,5.44E2,1.34E2,3.61E2,4.07E2,1.27E2,1.8E1,5E0,1.23E2,3.82E2,7.38E2,2.78E2,8.5E1,1.52E2,1E1,9.3E1,1.26E2,3.6E1,4.73E2,1.25E2,2.67E2,6.2E1,8.74E2,3.34E2,2.094E3,8.51E2,7.59E2,3.06E2,1.44E2,2.7E1,2.3E1,8E0,4.7E1,1.1E1,1.7E1,5E0,7.9E2,2.43E2,1E1,4.7E1,1.6E1,1.94E2,1.07E2,1.39E2,2E2,3.3E2,6.18E2,3.21E2,4E0,5.5E1,3E0,3E1,7E0,1.6E1,7E0,8.6E1,5.4E1,5.4E1,3.4E1,3.2E1,2E0,2.8E1,7E0,3.4E1,8E0,2E1,1.5E1,8E0,2.44E2,1.7E1,3E0,1.5E1,1.3E1,5E0,5E0,1.4E1,1.241E3,2.73E2,3.96E2,1.48E2,1.8E1,1.16E2,2.38E2,1.23E2,1.5E1,3.92E2,5E0,1.22E2,1.1E1,7E0,7.3E1,5E1,2.85E2,9.7E1,5.86E2,1.52E2,2.05E2,7.3E1,1E0,8.4E1,3.32E2,1.41E2,8E1,4.5E1,1.92E2,7.5E1,8.08E2,6.6E1,3.1E2,2.4E1,1.79E3,3.04E2,6.98E2,1.53E2,6.65E2,9.4E1,2.56E2,5E1,1.17E2,2.7E1,2.1E1,6E0,7E0,1.6E1,3.7E1,1E1,1.4E1,3E0],"tree_param":{"num_deleted":"0","num_feature":"37","num_nodes":"259","size_leaf_vector":"1"}},{"base_weights":[-8.234664E1,-1.5663676E3,1.4630741E4,-2.125965E3,3.955706E3,-2.3866104E3,4.9796047E4,-2.5881816E3,1.2290879E3,-2.8048984E2,9.891586E3,-2.6449966E3,-1.1660194E3,-1.3647211E3,6.4538043E4,-2.5024905E3,-3.6085764E3,-2.7436224E2,5.5287803E3,-2.8277615E2,1.0552762E4,-2.819715E2,-2.4286417E2,-2.5842532E2,-9.252304E2,-3.0187714E2,-8.7034796E2,5.7052918E4,8.682708E3,-2.4139167E3,-3.674689E3,-2.8342224E2,-4.6657492E2,3.6646206E3,1.06425205E4,9.384402E3,1.3780421E3,-6.085281E2,-1.169345E2,-2.6815057E2,-1.9654001E2,6.264437E3,4.541986E3,-2.3046414E3,-3.6035933E3,-2.7936728E2,-5.259455E3,-2.4909598E2,3.9721057E3,-2.5532698E2,1.1340421E3,1.0761993E3,6.676003E2,-7.764151E1,-4.7165096E1,1.1527469E2,-5.136933E2,-2.521304E3,-1.786427E3,-2.7925493E3,-4.8127023E2,-5.4269966E3,-4.897783E2,3.3160446E2,4.2974805E3,2.1862822E1,1.6451086E0,-8.398036E1,-1.66588E1,-2.4265599E2,-3.5617252E2,-1.3643251E2,-2.4722302E2,-2.850459E2,-2.638676E2,-4.988046E2,-5.7471454E2,5.135486E2,3.401989E2],"categories":[],"categories_nodes":[],"categories_segments":[],"categories_sizes":[],"default_left":[0,0,0,0,0,0,0,0,0,0,0,0,0,0,0,0,0,0,0,0,0,0,0,0,0,0,0,0,0,0,0,0,0,0,0,0,0,0,0,0,0,0,0,0,0,0,0,0,0,0,0,0,0,0,0,0,0,0,0,0,0,0,0,0,0,0,0,0,0,0,0,0,0,0,0,0,0,0,0],"id":2,"left_children":[1,3,5,7,9,11,13,15,17,-1,19,21,23,25,27,29,31,-1,33,-1,35,-1,-1,-1,37,39,-1,41,-1,43,45,-1,-1,47,49,51,-1,53,-1,-1,55,-1,-1,57,59,-1,61,-1,63,-1,-1,-1,-1,-1,-1,65,67,69,71,73,-1,75,-1,-1,77,-1,-1,-1,-1,-1,-1,-1,-1,-1,-1,-1,-1,-1,-1],"loss_changes":[6.1745974E11,7.938792E10,1.5506258E12,3.6174676E10,9.489539E10,5.478922E8,6.3739724E11,1.7835459E9,4.8270213E10,0E0,1.0617668E10,4.762317E7,1.02448E8,1.4793642E9,1.0449086E11,1.9551027E9,1.2851159E9,0E0,1.2897047E10,0E0,4.3846533E9,0E0,0E0,0E0,1.9698688E7,4.1333736E7,0E0,2.9287252E10,0E0,2.278441E9,1.8380698E9,0E0,0E0,1.8950717E9,3.362734E9,3.218948E9,0E0,2.322452E6,0E0,0E0,1.5981E7,0E0,0E0,1.8046239E9,1.435949E9,0E0,2.080768E6,0E0,1.8832896E8,0E0,0E0,0E0,0E0,0E0,0E0,8.3393225E5,8.915666E6,1.1111547E9,1.3728102E9,3.82464E5,0E0,1.5459328E7,0E0,0E0,4.5604864E8,0E0,0E0,0E0,0E0,0E0,0E0,0E0,0E0,0E0,0E0,0E0,0E0,0E0,0E0],"parents":[2147483647,0,0,1,1,2,2,3,3,4,4,5,5,6,6,7,7,8,8,10,10,11,11,12,12,13,13,14,14,15,15,16,16,18,18,20,20,24,24,25,25,27,27,29,29,30,30,33,33,34,34,35,35,37,37,40,40,43,43,44,44,46,46,48,48,55,55,56,56,57,57,58,58,59,59,61,61,64,64],"right_children":[2,4,6,8,10,12,14,16,18,-1,20,22,24,26,28,30,32,-1,34,-1,36,-1,-1,-1,38,40,-1,42,-1,44,46,-1,-1,48,50,52,-1,54,-1,-1,56,-1,-1,58,60,-1,62,-1,64,-1,-1,-1,-1,-1,-1,66,68,70,72,74,-1,76,-1,-1,78,-1,-1,-1,-1,-1,-1,-1,-1,-1,-1,-1,-1,-1,-1],"split_conditions":[1E0,1E0,1E0,1E0,1E0,1E0,1E0,1E0,1E0,-2.8048984E2,1E0,1E0,1E0,1E0,4E0,1E0,1E0,-2.7436224E2,4E0,-2.8277615E2,4E0,-2.819715E2,-2.4286417E2,-2.5842532E2,3E0,1E0,-8.7034796E2,3E0,8.682708E3,1E0,1E0,-2.8342224E2,-4.6657492E2,1E0,1E0,3E0,1.3780421E3,2E0,-1.169345E2,-2.6815057E2,3E0,6.264437E3,4.541986E3,4E0,1E0,-2.7936728E2,4E0,-2.4909598E2,2E0,-2.5532698E2,1.1340421E3,1.0761993E3,6.676003E2,-7.764151E1,-4.7165096E1,2E0,4E0,1E0,1E0,4E0,-4.8127023E2,2E0,-4.897783E2,3.3160446E2,3E0,2.1862822E1,1.6451086E0,-8.398036E1,-1.66588E1,-2.4265599E2,-3.5617252E2,-1.3643251E2,-2.4722302E2,-2.850459E2,-2.638676E2,-4.988046E2,-5.7471454E2,5.135486E2,3.401989E2],"split_indices":[12,14,4,15,4,34,22,7,4,0,22,2,3,20,0,9,4,0,0,0,0,0,0,0,0,34,0,0,0,8,4,0,0,22,22,0,0,0,0,0,0,0,0,0,4,0,0,0,0,0,0,0,0,0,0,0,0,10,18,0,0,0,0,0,0,0,0,0,0,0,0,0,0,0,0,0,0,0,0],"split_type":[0,0,0,0,0,0,0,0,0,0,0,0,0,0,0,0,0,0,0,0,0,0,0,0,0,0,0,0,0,0,0,0,0,0,0,0,0,0,0,0,0,0,0,0,0,0,0,0,0,0,0,0,0,0,0,0,0,0,0,0,0,0,0,0,0,0,0,0,0,0,0,0,0,0,0,0,0,0,0],"sum_hessian":[2.8277E4,2.5687E4,2.59E3,2.3324E4,2.363E3,1.746E3,8.44E2,2.05E4,2.824E3,1.105E3,1.258E3,1.44E3,3.06E2,1.89E2,6.55E2,1.8915E4,1.585E3,1.468E3,1.356E3,6.2E1,1.196E3,7.9E2,6.5E2,4.3E1,2.63E2,1.66E2,2.3E1,4.93E2,1.62E2,1.7589E4,1.326E3,9.17E2,6.68E2,9.95E2,3.61E2,8.81E2,3.15E2,1.16E2,1.47E2,6E0,1.6E2,3.3E2,1.63E2,1.6112E4,1.477E3,8.54E2,4.72E2,4.7E1,9.48E2,1.8E1,3.43E2,5.82E2,2.99E2,5E1,6.6E1,8.1E1,7.9E1,1.1359E4,4.753E3,8.86E2,5.91E2,3.13E2,1.59E2,3.18E2,6.3E2,3.9E1,4.2E1,4E1,3.9E1,1.0414E4,9.45E2,2.944E3,1.809E3,6.31E2,2.55E2,1.39E2,1.74E2,3.23E2,3.07E2],"tree_param":{"num_deleted":"0","num_feature":"37","num_nodes":"79","size_leaf_vector":"1"}},{"base_weights":[6.1737667E1,1.5271267E3,-2.2840479E3,8.374302E2,8.140749E3,-2.3806748E3,-1.461274E3,1.7126898E3,-2.560211E2,1.3654781E4,2.2354949E3,-2.4326777E3,-1.6494511E2,-5.458197E1,-2.3185905E2,2.995252E3,-2.1363599E3,-2.5219421E2,1.7375332E3,-2.6103937E2,3.0995734E2,-2.4617097E3,-1.9824338E2,-2.2160974E3,4.0655566E3,-2.3643755E3,-1.436885E3,-2.4037366E3,-2.6194235E2,-2.6518418E3,-1.1862434E3,5.055471E3,-3.7983807E2,-2.4772927E3,-2.1583267E3,-2.561251E2,-1.16250015E2,-2.4591284E2,-2.305388E3,-3.8268315E3,-2.599438E2,-1.5457318E3,-5.858386E2,6.256132E3,-3.7530405E2,-2.759307E2,-2.192023E3,-2.5684512E2,-2.055034E2,-2.2697305E3,-2.3894762E2,-2.5688168E2,-7.1771387E2,-4.237938E2,-1.0267968E2,-1.8453346E0,-2.3520508E2,7.3239276E2,-2.3620572E2,-1.9850188E2,-2.6554724E2,-2.2269237E2,-2.3622745E2],"categories":[],"categories_nodes":[],"categories_segments":[],"categories_sizes":[],"default_left":[0,0,0,0,0,0,0,0,0,0,0,0,0,0,0,0,0,0,0,0,0,0,0,0,0,0,0,0,0,0,0,0,0,0,0,0,0,0,0,0,0,0,0,0,0,0,0,0,0,0,0,0,0,0,0,0,0,0,0,0,0,0,0],"id":3,"left_children":[1,3,5,7,9,11,13,15,-1,17,19,21,-1,-1,-1,23,25,-1,-1,-1,-1,27,-1,29,31,33,35,37,-1,39,41,43,-1,45,47,-1,-1,-1,49,51,-1,53,55,57,-1,-1,59,-1,-1,61,-1,-1,-1,-1,-1,-1,-1,-1,-1,-1,-1,-1,-1],"loss_changes":[9.734973E10,7.950282E10,8.622203E8,4.6949073E10,5.356613E10,3.664732E8,8.9893914E8,6.19761E10,0E0,5.1262374E10,3.341124E9,1.1399578E8,0E0,0E0,0E0,5.252893E10,4.9708544E8,0E0,0E0,0E0,0E0,7.177421E7,0E0,7.171036E8,6.0832694E10,4.9678336E7,2.3580838E8,2.8413952E7,0E0,5.944576E7,1.0248109E8,7.341054E10,0E0,1.1631718E8,3.0518528E7,0E0,0E0,0E0,1.3824E6,1.7544115E8,0E0,4.1337542E8,1.8134082E8,5.6216764E10,0E0,0E0,6.773581E7,0E0,0E0,1.133568E6,0E0,0E0,0E0,0E0,0E0,0E0,0E0,0E0,0E0,0E0,0E0,0E0,0E0],"parents":[2147483647,0,0,1,1,2,2,3,3,4,4,5,5,6,6,7,7,9,9,10,10,11,11,15,15,16,16,21,21,23,23,24,24,25,25,26,26,27,27,29,29,30,30,31,31,33,33,34,34,38,38,39,39,41,41,42,42,43,43,46,46,49,49],"right_children":[2,4,6,8,10,12,14,16,-1,18,20,22,-1,-1,-1,24,26,-1,-1,-1,-1,28,-1,30,32,34,36,38,-1,40,42,44,-1,46,48,-1,-1,-1,50,52,-1,54,56,58,-1,-1,60,-1,-1,62,-1,-1,-1,-1,-1,-1,-1,-1,-1,-1,-1,-1,-1],"split_conditions":[1E0,1E0,1E0,1E0,1E0,1E0,1E0,1E0,-2.560211E2,1E0,1E0,1E0,-1.6494511E2,-5.458197E1,-2.3185905E2,1E0,1E0,-2.5219421E2,1.7375332E3,-2.6103937E2,3.0995734E2,1E0,-1.9824338E2,1E0,1E0,1E0,1E0,1E0,-2.6194235E2,1E0,1E0,1E0,-3.7983807E2,1E0,1E0,-2.561251E2,-1.16250015E2,-2.4591284E2,1E0,1E0,-2.599438E2,1E0,1E0,1E0,-3.7530405E2,-2.759307E2,1E0,-2.5684512E2,-2.055034E2,1E0,-2.3894762E2,-2.5688168E2,-7.1771387E2,-4.237938E2,-1.0267968E2,-1.8453346E0,-2.3520508E2,7.3239276E2,-2.3620572E2,-1.9850188E2,-2.6554724E2,-2.2269237E2,-2.3622745E2],"split_indices":[2,24,25,18,13,19,15,33,0,35,35,17,0,0,0,35,14,0,0,0,0,33,0,34,7,15,35,18,0,3,23,8,0,13,35,0,0,0,30,20,0,3,25,17,0,0,20,0,0,27,0,0,0,0,0,0,0,0,0,0,0,0,0],"split_type":[0,0,0,0,0,0,0,0,0,0,0,0,0,0,0,0,0,0,0,0,0,0,0,0,0,0,0,0,0,0,0,0,0,0,0,0,0,0,0,0,0,0,0,0,0,0,0,0,0,0,0,0,0,0,0,0,0,0,0,0,0,0,0],"sum_hessian":[2.8318E4,1.743E4,1.0888E4,1.5785E4,1.645E3,9.742E3,1.146E3,1.2552E4,3.233E3,8.5E2,7.95E2,9.093E3,6.49E2,5.55E2,5.91E2,9.415E3,3.137E3,1.59E2,6.91E2,1.2E2,6.75E2,8.538E3,5.55E2,1.604E3,7.811E3,2.364E3,7.73E2,6.255E3,2.283E3,1.126E3,4.78E2,6.938E3,8.73E2,1.52E3,8.44E2,1.5E2,6.23E2,3.986E3,2.269E3,4.5E1,1.081E3,2.98E2,1.8E2,6.106E3,8.32E2,7.6E2,7.6E2,1.65E2,6.79E2,1.613E3,6.56E2,3.4E1,1.1E1,4.7E1,2.51E2,1.37E2,4.3E1,5.433E3,6.73E2,5.29E2,2.31E2,1.12E3,4.93E2],"tree_param":{"num_deleted":"0","num_feature":"37","num_nodes":"63","size_leaf_vector":"1"}},{"base_weights":[8.378779E1,-2.2147498E3,2.9042297E3,-2.5521736E3,-2.067123E3,9.107453E3,-1.8938517E3,-2.1838933E3,-2.901129E3,-1.7798319E3,-2.2850444E3,1.1724861E4,-6.2175745E2,1.7283745E3,-2.3403176E3,-2.3511942E2,-1.4292389E3,-2.9694058E3,-2.1922098E2,-1.9187295E3,-4.7400598E2,-2.1337786E3,-2.3185527E2,1.013682E4,3.163495E4,-1.5507455E3,2.5726667E3,5.9320483E2,1.0428981E4,-2.5711626E3,2.6193184E3,-6.901002E2,-1.9845631E3,-3.037053E3,-2.421466E2,-2.1369272E3,-1.3018511E3,1.0804441E3,-2.5177515E2,-2.191402E3,-1.6637747E3,8.740705E3,2.6751209E4,-2.1262975E2,3.812097E4,-2.1240942E3,-3.6434555E2,-6.292461E3,3.127525E3,1.6594564E3,-2.734481E3,7.6662793E3,1.7822098E4,-1.2927968E3,-2.9328804E3,-8.981266E2,1.2660927E4,-2.0772252E2,-2.4921738E2,-1.6588778E3,-2.2453762E3,-3.0838464E3,-2.3664957E2,-2.1677314E3,-1.7127153E3,-1.6026558E3,3.3399546E3,1.2116665E2,4.047713E3,-2.2784732E2,-1.9605963E3,-8.4590735E2,-2.443463E2,9.9028E3,-5.616008E3,-1.9515208E2,3.0592193E4,-1.728063E3,4.0794832E4,-2.5123193E3,-1.2918193E3,-2.5531125E3,1.8860392E3,-3.796018E2,-7.0821155E2,3.674147E3,-3.0342483E3,2.1283057E3,-5.956159E2,-2.5417752E2,-3.261256E2,1.0109676E4,6.103752E3,2.3740576E3,1.1898859E3,-1.6551425E3,1.753342E3,-2.7907583E3,-4.2193135E3,-1.1556578E3,1.0744336E3,1.5481358E4,5.290754E3,1.3444917E2,-1.8599126E3,-1.2605663E3,-2.2594502E2,-2.032399E2,-2.4635262E2,-3.0241475E3,-3.5455212E2,-2.084125E3,-2.2272136E3,-2.3122195E2,-1.6631772E3,-1.4015068E3,-2.3681697E2,5.5939355E3,2.9844736E2,-5.9536646E2,1.0836318E3,2.4114165E3,6.1401294E3,-2.0475936E3,-7.776963E2,-1.2143256E3,1.6306862E2,1.1130619E4,-6.9384365E3,-7.0117495E3,-4.781497E3,2.4296305E4,4.753501E4,-2.2698894E3,-2.6609507E1,6.871263E3,3.541108E4,-2.3466893E2,-2.6045828E3,3.236556E3,-1.6539596E3,-2.0665608E3,-3.6641013E3,4.515726E3,-3.2040657E3,-2.6703934E2,4.288181E3,-4.1354424E3,-1.8637327E3,9.6127216E2,4.951378E3,1.3822372E3,5.619313E2,7.0228066E3,4.762749E2,-1.24612E3,-2.9154216E3,7.060175E2,5.709641E3,-2.874431E3,-1.3965522E3,-3.694267E2,-4.6516304E3,-9.838819E2,-3.830246E2,3.3664443E3,-9.668922E1,1.6865809E4,-5.694621E2,8.131104E2,2.0352119E3,-2.4695557E2,4.3652306E1,-1.3410399E2,-2.1328226E2,-1.03892494E2,-1.4241771E2,-3.0609024E2,-2.366084E2,-2.1334375E2,-1.6788112E2,-2.2410301E2,-2.0203008E2,-1.5708794E2,-1.9230815E2,-1.3044429E2,-2.4874084E2,1.352875E2,5.909777E2,9.8233475E1,-4.142506E0,-2.3899052E2,-4.5431293E1,1.5230807E2,2.8318445E1,-2.0631387E2,2.7260522E2,6.803178E2,3.714991E2,-1.9525053E2,-2.356992E2,-5.1904408E1,-1.0648943E2,-6.2239826E1,-1.3381401E2,3.2775692E1,-3.803711E0,1.2560884E3,-4.2786987E2,-8.323159E2,-5.995953E2,-2.2212373E2,-7.33792E2,-4.9973825E2,-4.0055444E2,-5.2450604E2,2.6007188E3,-6.134841E2,5.151304E3,-1.3385425E2,-2.6846637E2,3.2098066E3,4.5435317E3,-2.2034756E2,-2.699031E2,5.664556E2,4.039861E1,-6.0367245E1,-2.4211174E2,-1.7686626E2,-2.8170883E2,-3.1615723E2,-4.551017E2,1.5781955E2,5.610587E2,-1.729782E2,-3.4787985E2,5.1229974E2,2.0506367E2,-5.344681E2,-1.8572679E2,-2.5653262E2,1.8078588E1,5.5212025E1,5.9112616E2,5.7540393E2,-3.0275723E2,8.2406915E2,5.358389E2,-1.05925896E2,-4.198978E2,-2.7355106E2,-3.3808734E2,-4.9296078E1,2.0229568E2,3.2463864E2,7.95647E2,-2.922607E2,-2.1044751E2,5.9788418E1,-2.4598335E2,-3.1132385E2,-5.0689005E2,-1.3140662E2,-1.3589243E1,-1.5640584E2,3.9568588E2,1.8520784E3,-1.7331078E2,1.4608214E2,-1.1631022E2],"categories":[],"categories_nodes":[],"categories_segments":[],"categories_sizes":[],"default_left":[0,0,0,0,0,0,0,0,0,0,0,0,0,0,0,0,0,0,0,0,0,0,0,0,0,0,0,0,0,0,0,0,0,0,0,0,0,0,0,0,0,0,0,0,0,0,0,0,0,0,0,0,0,0,0,0,0,0,0,0,0,0,0,0,0,0,0,0,0,0,0,0,0,0,0,0,0,0,0,0,0,0,0,0,0,0,0,0,0,0,0,0,0,0,0,0,0,0,0,0,0,0,0,0,0,0,0,0,0,0,0,0,0,0,0,0,0,0,0,0,0,0,0,0,0,0,0,0,0,0,0,0,0,0,0,0,0,0,0,0,0,0,0,0,0,0,0,0,0,0,0,0,0,0,0,0,0,0,0,0,0,0,0,0,0,0,0,0,0,0,0,0,0,0,0,0,0,0,0,0,0,0,0,0,0,0,0,0,0,0,0,0,0,0,0,0,0,0,0,0,0,0,0,0,0,0,0,0,0,0,0,0,0,0,0,0,0,0,0,0,0,0,0,0,0,0,0,0,0,0,0,0,0,0,0,0,0,0,0,0,0,0,0,0,0,0,0,0,0,0,0,0,0,0,0,0,0,0,0,0,0,0,0,0,0,0,0,0,0,0,0],"id":4,"left_children":[1,3,5,7,9,11,13,15,17,19,21,23,25,27,29,-1,31,33,-1,35,37,39,-1,41,43,45,47,49,51,53,55,57,59,61,-1,63,65,67,-1,69,71,73,75,-1,77,79,81,83,85,87,89,91,93,95,97,99,101,-1,103,105,107,109,-1,111,113,115,117,119,121,-1,123,125,-1,127,129,-1,131,133,135,137,139,141,143,-1,-1,145,147,149,-1,-1,-1,151,153,-1,-1,155,157,159,161,163,165,167,169,171,173,175,-1,-1,-1,177,-1,179,181,-1,183,185,-1,187,189,191,193,195,197,199,201,203,205,207,209,211,213,215,217,219,-1,-1,221,-1,223,225,227,229,231,233,235,-1,237,239,241,243,245,-1,-1,247,-1,249,251,253,255,257,259,-1,261,263,-1,265,-1,267,-1,269,-1,-1,-1,-1,-1,-1,-1,-1,-1,-1,-1,-1,-1,-1,-1,-1,-1,-1,-1,-1,-1,-1,-1,-1,-1,-1,-1,-1,-1,-1,-1,-1,-1,-1,-1,-1,-1,-1,-1,-1,-1,-1,-1,-1,-1,-1,-1,-1,-1,-1,-1,-1,-1,-1,-1,-1,-1,-1,-1,-1,-1,-1,-1,-1,-1,-1,-1,-1,-1,-1,-1,-1,-1,-1,-1,-1,-1,-1,-1,-1,-1,-1,-1,-1,-1,-1,-1,-1,-1,-1,-1,-1,-1,-1,-1,-1,-1,-1,-1,-1,-1],"loss_changes":[1.8395202E11,7.7348864E8,3.792349E11,6.046167E8,6.77163E8,1.4151808E11,1.1623631E10,2.8917043E8,1.1149722E8,8.511949E8,2.6394624E7,1.3813468E11,3.5027686E9,7.7865027E9,7.3307054E9,0E0,1.7225574E8,7.497114E7,0E0,5.687368E8,1.4418561E9,2.7066368E7,0E0,9.387072E10,7.081037E10,6.20948E8,1.3281042E9,2.4846948E9,1.7220444E9,2.8229059E9,1.00778E10,1.1139772E8,1.6746496E7,5.460992E7,0E0,3.7252096E7,1.5580129E9,7.3388954E8,0E0,1.5770112E7,7.955626E7,6.2519968E10,3.4677195E10,0E0,2.8945777E10,1.9579034E8,1.47756E9,4.657344E6,8.565568E8,1.905082E9,8.96768E6,1.9790848E8,5.5887155E8,1.4929715E9,8.592302E8,1.0893683E8,1.4563348E9,0E0,8.676584E7,2.3704672E7,1.079488E6,4.001792E7,0E0,9.874432E6,2.598912E6,1.5759258E8,4.645045E8,1.3581424E8,2.0089382E8,0E0,2.753088E7,2.3988436E7,0E0,7.170579E10,2.9377126E8,0E0,2.839267E10,1.3654384E7,3.5743662E10,2.90816E5,3.3005472E8,7.459213E7,1.9955052E9,0E0,0E0,9.1137254E8,1.9360912E7,1.64255E9,0E0,0E0,0E0,3.3911168E8,2.0780032E7,0E0,0E0,6.185544E8,5.9263706E8,4.967936E8,8.995379E7,8.260435E7,1.2022349E8,1.6498514E9,1.4671188E9,9.075062E7,9.63152E5,1.02252E6,0E0,0E0,0E0,3.2350208E7,0E0,2.0983296E7,3.06688E5,0E0,1.872704E6,8.423885E7,0E0,4.4245376E7,7.013727E6,2.7517484E7,2.911616E7,5.7714864E7,1.814176E7,3.135488E6,1.007245E6,2.611736E6,6.086225E5,7.121902E10,2.5809306E8,1.4464102E8,9.968128E6,1.044693E10,1.6115057E10,1.42834E6,0E0,0E0,5.6818565E9,0E0,3.902592E6,1.0087379E8,1.4679382E8,1.9164256E7,5.66816E6,3.063319E8,1.4639136E7,0E0,3.8363008E8,1.7622048E7,1.7676824E7,7.15717E8,9.5246234E8,0E0,0E0,4.4928E6,0E0,4.99322E8,1.5454976E7,1.8258013E8,1.4020557E8,1.4403994E8,5.2102906E8,0E0,1.4791066E8,4.966013E7,0E0,4.1121264E7,0E0,1.5711334E9,0E0,2.4739344E7,0E0,0E0,0E0,0E0,0E0,0E0,0E0,0E0,0E0,0E0,0E0,0E0,0E0,0E0,0E0,0E0,0E0,0E0,0E0,0E0,0E0,0E0,0E0,0E0,0E0,0E0,0E0,0E0,0E0,0E0,0E0,0E0,0E0,0E0,0E0,0E0,0E0,0E0,0E0,0E0,0E0,0E0,0E0,0E0,0E0,0E0,0E0,0E0,0E0,0E0,0E0,0E0,0E0,0E0,0E0,0E0,0E0,0E0,0E0,0E0,0E0,0E0,0E0,0E0,0E0,0E0,0E0,0E0,0E0,0E0,0E0,0E0,0E0,0E0,0E0,0E0,0E0,0E0,0E0,0E0,0E0,0E0,0E0,0E0,0E0,0E0,0E0,0E0,0E0,0E0,0E0,0E0,0E0,0E0,0E0,0E0,0E0,0E0,0E0,0E0,0E0],"parents":[2147483647,0,0,1,1,2,2,3,3,4,4,5,5,6,6,7,7,8,8,9,9,10,10,11,11,12,12,13,13,14,14,16,16,17,17,19,19,20,20,21,21,23,23,24,24,25,25,26,26,27,27,28,28,29,29,30,30,31,31,32,32,33,33,35,35,36,36,37,37,39,39,40,40,41,41,42,42,44,44,45,45,46,46,47,47,48,48,49,49,50,50,51,51,52,52,53,53,54,54,55,55,56,56,58,58,59,59,60,60,61,61,63,63,64,64,65,65,66,66,67,67,68,68,70,70,71,71,73,73,74,74,76,76,77,77,78,78,79,79,80,80,81,81,82,82,85,85,86,86,87,87,91,91,92,92,95,95,96,96,97,97,98,98,99,99,100,100,101,101,102,102,103,103,104,104,105,105,109,109,111,111,112,112,114,114,115,115,117,117,118,118,119,119,120,120,121,121,122,122,123,123,124,124,125,125,126,126,127,127,128,128,129,129,130,130,131,131,132,132,133,133,136,136,138,138,139,139,140,140,141,141,142,142,143,143,144,144,146,146,147,147,148,148,149,149,150,150,153,153,155,155,156,156,157,157,158,158,159,159,160,160,162,162,163,163,165,165,167,167,169,169],"right_children":[2,4,6,8,10,12,14,16,18,20,22,24,26,28,30,-1,32,34,-1,36,38,40,-1,42,44,46,48,50,52,54,56,58,60,62,-1,64,66,68,-1,70,72,74,76,-1,78,80,82,84,86,88,90,92,94,96,98,100,102,-1,104,106,108,110,-1,112,114,116,118,120,122,-1,124,126,-1,128,130,-1,132,134,136,138,140,142,144,-1,-1,146,148,150,-1,-1,-1,152,154,-1,-1,156,158,160,162,164,166,168,170,172,174,176,-1,-1,-1,178,-1,180,182,-1,184,186,-1,188,190,192,194,196,198,200,202,204,206,208,210,212,214,216,218,220,-1,-1,222,-1,224,226,228,230,232,234,236,-1,238,240,242,244,246,-1,-1,248,-1,250,252,254,256,258,260,-1,262,264,-1,266,-1,268,-1,270,-1,-1,-1,-1,-1,-1,-1,-1,-1,-1,-1,-1,-1,-1,-1,-1,-1,-1,-1,-1,-1,-1,-1,-1,-1,-1,-1,-1,-1,-1,-1,-1,-1,-1,-1,-1,-1,-1,-1,-1,-1,-1,-1,-1,-1,-1,-1,-1,-1,-1,-1,-1,-1,-1,-1,-1,-1,-1,-1,-1,-1,-1,-1,-1,-1,-1,-1,-1,-1,-1,-1,-1,-1,-1,-1,-1,-1,-1,-1,-1,-1,-1,-1,-1,-1,-1,-1,-1,-1,-1,-1,-1,-1,-1,-1,-1,-1,-1,-1,-1,-1],"split_conditions":[1E0,1E0,1.8E1,1E0,1.7E1,1E0,2.1E1,1E0,1E0,1E0,2.2E1,1E0,1E0,1E0,4.4E1,-2.3511942E2,2E0,1E0,-2.1922098E2,4E0,1E0,1E0,-2.3185527E2,1E0,1E0,1E0,0E0,1E0,4E0,2.6E1,4E0,1E0,4E0,1E0,-2.421466E2,1E0,1E0,4E0,-2.5177515E2,4E0,1E0,1E0,1E0,-2.1262975E2,-1E0,1E0,7E0,-1E0,1.6E1,1E0,1E0,1.9E1,1E0,1E0,1E0,1E0,1E0,-2.0772252E2,1E0,1E0,6E0,1E0,-2.3664957E2,6E0,-1E0,1E0,1E1,9E0,1E1,-2.2784732E2,1E0,4E0,-2.443463E2,1E0,6E0,-1.9515208E2,4E0,4E0,2E0,1E0,2E0,4E0,1.4E1,-3.796018E2,-7.0821155E2,1E0,1.7E1,4E0,-5.956159E2,-2.5417752E2,-3.261256E2,1E0,2E1,2.3740576E3,1.1898859E3,1E0,4E0,1E0,1E0,1E0,1E0,1E0,1E0,-1E0,1E0,3E0,-2.2594502E2,-2.032399E2,-2.4635262E2,1E0,-3.5455212E2,1E0,1E0,-2.3122195E2,1.3E1,1E0,-2.3681697E2,-1E0,1.2E1,-1E0,1.4E1,-1E0,1.5E1,1E0,2E1,1.8E1,2E1,1E0,6E0,-1E0,1.5E1,-1E0,-1E0,2E0,-2.6609507E1,6.871263E3,4E0,-2.3466893E2,2E0,4E0,9E0,4E0,4E0,9E0,1.5E1,-2.6703934E2,1.2E1,3E0,4E0,1E0,1E0,1.3822372E3,5.619313E2,1E0,4.762749E2,1E0,1E0,1E0,1E0,1E0,3.2E1,-3.694267E2,3E1,3E0,-3.830246E2,1E0,-9.668922E1,1E0,-5.694621E2,1E0,2.0352119E3,-2.4695557E2,4.3652306E1,-1.3410399E2,-2.1328226E2,-1.03892494E2,-1.4241771E2,-3.0609024E2,-2.366084E2,-2.1334375E2,-1.6788112E2,-2.2410301E2,-2.0203008E2,-1.5708794E2,-1.9230815E2,-1.3044429E2,-2.4874084E2,1.352875E2,5.909777E2,9.8233475E1,-4.142506E0,-2.3899052E2,-4.5431293E1,1.5230807E2,2.8318445E1,-2.0631387E2,2.7260522E2,6.803178E2,3.714991E2,-1.9525053E2,-2.356992E2,-5.1904408E1,-1.0648943E2,-6.2239826E1,-1.3381401E2,3.2775692E1,-3.803711E0,1.2560884E3,-4.2786987E2,-8.323159E2,-5.995953E2,-2.2212373E2,-7.33792E2,-4.9973825E2,-4.0055444E2,-5.2450604E2,2.6007188E3,-6.134841E2,5.151304E3,-1.3385425E2,-2.6846637E2,3.2098066E3,4.5435317E3,-2.2034756E2,-2.699031E2,5.664556E2,4.039861E1,-6.0367245E1,-2.4211174E2,-1.7686626E2,-2.8170883E2,-3.1615723E2,-4.551017E2,1.5781955E2,5.610587E2,-1.729782E2,-3.4787985E2,5.1229974E2,2.0506367E2,-5.344681E2,-1.8572679E2,-2.5653262E2,1.8078588E1,5.5212025E1,5.9112616E2,5.7540393E2,-3.0275723E2,8.2406915E2,5.358389E2,-1.05925896E2,-4.198978E2,-2.7355106E2,-3.3808734E2,-4.9296078E1,2.0229568E2,3.2463864E2,7.95647E2,-2.922607E2,-2.1044751E2,5.9788418E1,-2.4598335E2,-3.1132385E2,-5.0689005E2,-1.3140662E2,-1.3589243E1,-1.5640584E2,3.9568588E2,1.8520784E3,-1.7331078E2,1.4608214E2,-1.1631022E2],"split_indices":[4,2,1,35,1,33,1,34,7,16,1,14,14,24,1,0,1,33,0,0,33,16,0,15,35,15,1,33,0,1,0,3,1,30,0,17,31,0,0,0,33,7,35,0,1,13,1,1,1,9,15,1,13,24,14,13,33,0,14,24,1,16,0,1,1,33,1,1,1,0,31,0,0,9,1,0,0,0,1,16,1,1,1,0,0,35,1,0,0,0,0,13,1,0,0,33,0,24,24,9,24,7,13,1,24,1,0,0,0,27,0,15,31,0,1,10,0,1,1,1,1,1,1,33,1,1,1,10,1,1,1,1,1,0,0,0,0,0,1,0,1,0,0,1,1,0,1,0,0,15,7,0,0,13,0,9,15,13,13,7,1,0,1,0,0,35,0,28,0,16,0,0,0,0,0,0,0,0,0,0,0,0,0,0,0,0,0,0,0,0,0,0,0,0,0,0,0,0,0,0,0,0,0,0,0,0,0,0,0,0,0,0,0,0,0,0,0,0,0,0,0,0,0,0,0,0,0,0,0,0,0,0,0,0,0,0,0,0,0,0,0,0,0,0,0,0,0,0,0,0,0,0,0,0,0,0,0,0,0,0,0,0,0,0,0,0,0,0,0,0,0],"split_type":[0,0,0,0,0,0,0,0,0,0,0,0,0,0,0,0,0,0,0,0,0,0,0,0,0,0,0,0,0,0,0,0,0,0,0,0,0,0,0,0,0,0,0,0,0,0,0,0,0,0,0,0,0,0,0,0,0,0,0,0,0,0,0,0,0,0,0,0,0,0,0,0,0,0,0,0,0,0,0,0,0,0,0,0,0,0,0,0,0,0,0,0,0,0,0,0,0,0,0,0,0,0,0,0,0,0,0,0,0,0,0,0,0,0,0,0,0,0,0,0,0,0,0,0,0,0,0,0,0,0,0,0,0,0,0,0,0,0,0,0,0,0,0,0,0,0,0,0,0,0,0,0,0,0,0,0,0,0,0,0,0,0,0,0,0,0,0,0,0,0,0,0,0,0,0,0,0,0,0,0,0,0,0,0,0,0,0,0,0,0,0,0,0,0,0,0,0,0,0,0,0,0,0,0,0,0,0,0,0,0,0,0,0,0,0,0,0,0,0,0,0,0,0,0,0,0,0,0,0,0,0,0,0,0,0,0,0,0,0,0,0,0,0,0,0,0,0,0,0,0,0,0,0,0,0,0,0,0,0,0,0,0,0,0,0,0,0,0,0,0,0],"sum_hessian":[2.8373E4,1.5633E4,1.274E4,4.753E3,1.088E4,5.556E3,7.184E3,2.316E3,2.437E3,4.697E3,6.183E3,4.378E3,1.178E3,7.88E2,6.396E3,1.894E3,4.22E2,2.22E3,2.17E2,4.245E3,4.52E2,1.133E3,5.05E3,4.056E3,3.22E2,9.13E2,2.65E2,6.98E2,9E1,6.112E3,2.84E2,1.82E2,2.4E2,1.972E3,2.48E2,3.134E3,1.111E3,2.57E2,1.95E2,1.006E3,1.27E2,3.743E3,3.13E2,5.2E1,2.7E2,6.15E2,2.98E2,1.5E1,2.5E2,5.29E2,1.69E2,6.7E1,2.3E1,1.349E3,4.763E3,2.11E2,7.3E1,4.3E1,1.39E2,1.1E2,1.3E2,1.84E3,1.32E2,2.918E3,2.16E2,1.044E3,6.7E1,1.95E2,6.2E1,7.24E2,2.82E2,6.3E1,6.4E1,3.463E3,2.8E2,3.7E1,2.76E2,1.7E1,2.53E2,4.18E2,1.97E2,1.51E2,1.47E2,5E0,1E1,2.3E2,2E1,4.99E2,3E1,1.28E2,4.1E1,2.4E1,4.3E1,1E1,1.3E1,1.206E3,1.43E2,4.292E3,4.71E2,1.87E2,2.4E1,5.2E1,2.1E1,1.13E2,2.6E1,6.8E1,4.2E1,7.1E1,5.9E1,1.636E3,2.04E2,1.228E3,1.69E3,1.3E1,2.03E2,8.29E2,2.15E2,3.8E1,2.9E1,1.12E2,8.3E1,3.6E1,2.6E1,2.62E2,2E1,4.6E1,1.7E1,3.228E3,2.35E2,1.02E2,1.78E2,2.03E2,7.3E1,1.2E1,5E0,3.9E1,2.14E2,1.59E2,2.59E2,1.4E1,1.83E2,1.07E2,4.4E1,9.7E1,5E1,2E1,2.1E2,9E0,1.1E1,3.54E2,1.45E2,1.2E1,1.2E1,2.3E1,2E1,9.12E2,2.94E2,1.14E2,2.9E1,4.048E3,2.44E2,2.17E2,2.54E2,1.77E2,1E1,1.1E1,1.3E1,4.9E1,3E0,1.7E1,4E0,1.1E1,1.02E2,1.1E1,1.5E1,3.2E1,3.6E1,1.546E3,9E1,1.091E3,1.37E2,1.575E3,1.15E2,1.55E2,4.8E1,7.63E2,6.6E1,3E0,3.5E1,9E0,2E1,7E0,1.05E2,5.3E1,3E1,2E0,3.4E1,1.9E1,7E0,2.06E2,5.6E1,1.2E1,8E0,9E0,3.7E1,9E0,8E0,2.954E3,2.74E2,9.2E1,1.43E2,7E0,9.5E1,1.35E2,4.3E1,1.1E1,1.92E2,5E0,6.8E1,5E0,7E0,1.64E2,5E1,5.4E1,2.05E2,7E0,7E0,7.8E1,1.05E2,7.9E1,2.8E1,3.1E1,1.3E1,2.7E1,7E1,9E0,4.1E1,1.52E2,5.8E1,5E0,4E0,8E0,3E0,3.28E2,2.6E1,1.32E2,1.3E1,1.1E1,1.2E1,8.59E2,5.3E1,2.17E2,7.7E1,6E1,5.4E1,1.5E1,1.4E1,3.807E3,2.41E2,8.5E1,1.59E2,5.6E1,1.98E2,1.27E2,5E1,1E0,1E1,4.5E1,4E0,1.3E1,4E0],"tree_param":{"num_deleted":"0","num_feature":"37","num_nodes":"271","size_leaf_vector":"1"}},{"base_weights":[5.6929516E1,1.2539156E3,-1.8541765E3,-2.0551071E2,3.8277195E3,-1.9340537E3,-1.1664044E3,7.403112E2,-2.5298945E3,-1.8976166E3,5.607321E3,-2.0369236E3,-1.6664183E3,-4.0949435E2,-1.8900977E2,2.2788665E3,-1.6418387E3,-2.6202507E3,-2.0827477E2,-1.2790675E3,-2.1847373E3,8.0152153E3,-2.529895E3,-2.0503403E3,-1.8181737E2,-1.7958279E3,2.3893438E1,-8.5951324E2,8.091626E1,3.2174326E3,-3.105964E3,-1.459721E3,-2.2127464E2,-2.6909148E3,-2.1239128E2,-2.0622952E3,-6.9126636E2,-4.0091519E3,-2.0925847E2,1.0428981E4,-4.38549E3,-2.7088484E3,-1.8703714E2,-2.0310478E2,-2.11123E2,-1.6492396E3,-2.1637682E2,-1.08025E2,-7.488287E2,1.7945992E3,1.0054579E4,-3.1173514E2,-2.1800334E2,-2.1249539E2,-1.269791E3,-2.7295303E2,-2.585385E2,-1.6334528E3,-9.438034E2,-5.0793323E2,-8.846403E2,-2.5116519E3,-7.1362085E2,1.4192366E4,-3.3763274E3,-4.2015656E2,-4.5701456E2,-2.942136E2,-1.9740355E2,-1.3795027E3,-1.9119294E3,-6.2740875E1,-8.5977104E1,2.8529836E3,-2.5958425E3,7.8944097E3,1.5996147E4,-1.1864915E3,-2.1848575E2,-1.4725598E2,-1.7670217E3,-5.703285E1,-4.2864418E1,-7.728573E1,-9.815514E1,-3.4729315E2,-2.0266739E2,2.0606492E4,-3.5052304E2,-3.5473532E2,-3.1962448E2,-1.4594681E3,-9.3586334E1,-1.8639956E3,-2.2600609E2,4.3894995E2,-1.5041196E2,-2.7560886E2,-2.140417E2,-1.7759138E2,8.597379E2,-1.8956226E2,1.8150227E3,-9.62178E1,-1.5712346E2,-1.9774506E2,-1.5307053E2,3.3903025E3,-3.189959E2,-2.0899779E2,-1.2932182E2,-1.828745E2,-1.9922057E2],"categories":[],"categories_nodes":[],"categories_segments":[],"categories_sizes":[],"default_left":[0,0,0,0,0,0,0,0,0,0,0,0,0,0,0,0,0,0,0,0,0,0,0,0,0,0,0,0,0,0,0,0,0,0,0,0,0,0,0,0,0,0,0,0,0,0,0,0,0,0,0,0,0,0,0,0,0,0,0,0,0,0,0,0,0,0,0,0,0,0,0,0,0,0,0,0,0,0,0,0,0,0,0,0,0,0,0,0,0,0,0,0,0,0,0,0,0,0,0,0,0,0,0,0,0,0,0,0,0,0,0,0,0],"id":5,"left_children":[1,3,5,7,9,11,13,15,17,19,21,23,25,27,-1,29,31,33,-1,35,37,39,41,43,-1,45,-1,47,-1,49,51,53,-1,55,-1,57,59,61,-1,63,65,67,-1,-1,-1,69,-1,-1,71,73,75,-1,-1,-1,77,-1,-1,79,-1,81,83,85,-1,87,89,-1,-1,-1,-1,91,93,-1,-1,95,97,99,101,103,-1,-1,105,-1,-1,-1,-1,-1,-1,107,-1,-1,-1,109,-1,111,-1,-1,-1,-1,-1,-1,-1,-1,-1,-1,-1,-1,-1,-1,-1,-1,-1,-1,-1],"loss_changes":[6.487545E10,6.550274E10,5.9776205E8,2.446846E10,6.430207E10,2.6597786E8,6.231368E8,2.8998105E10,1.2459827E8,2.6307072E8,9.434368E10,1.7002496E7,6.71595E8,3.067131E8,0E0,2.430467E10,3.1960474E8,8.807014E7,0E0,2.181767E8,1.6326554E8,1.1124462E11,1.2476006E8,3.520512E6,0E0,1.3391411E8,0E0,9.159424E6,0E0,3.980888E10,7.3216E5,2.9510298E8,0E0,2.466816E6,0E0,6.298414E8,9.26448E6,2.0684922E8,0E0,1.6162698E11,1.379328E6,1.4213018E8,0E0,0E0,0E0,1.268183E8,0E0,0E0,3.164976E6,1.5759976E10,8.922251E9,0E0,0E0,0E0,1.3735603E8,0E0,0E0,1.567104E6,0E0,4.62992E5,6.7136E5,8.812288E6,0E0,2.7750197E11,9.204736E6,0E0,0E0,0E0,0E0,3.073984E7,1.1189504E7,0E0,0E0,1.829668E10,4.2194944E7,3.5434025E9,7.241437E9,1.4390912E8,0E0,0E0,1.995616E6,0E0,0E0,0E0,0E0,0E0,0E0,5.677482E11,0E0,0E0,0E0,7.748621E7,0E0,4.9152E4,0E0,0E0,0E0,0E0,0E0,0E0,0E0,0E0,0E0,0E0,0E0,0E0,0E0,0E0,0E0,0E0,0E0,0E0,0E0],"parents":[2147483647,0,0,1,1,2,2,3,3,4,4,5,5,6,6,7,7,8,8,9,9,10,10,11,11,12,12,13,13,15,15,16,16,17,17,19,19,20,20,21,21,22,22,23,23,25,25,27,27,29,29,30,30,31,31,33,33,35,35,36,36,37,37,39,39,40,40,41,41,45,45,48,48,49,49,50,50,54,54,57,57,59,59,60,60,61,61,63,63,64,64,69,69,70,70,73,73,74,74,75,75,76,76,77,77,80,80,87,87,91,91,93,93],"right_children":[2,4,6,8,10,12,14,16,18,20,22,24,26,28,-1,30,32,34,-1,36,38,40,42,44,-1,46,-1,48,-1,50,52,54,-1,56,-1,58,60,62,-1,64,66,68,-1,-1,-1,70,-1,-1,72,74,76,-1,-1,-1,78,-1,-1,80,-1,82,84,86,-1,88,90,-1,-1,-1,-1,92,94,-1,-1,96,98,100,102,104,-1,-1,106,-1,-1,-1,-1,-1,-1,108,-1,-1,-1,110,-1,112,-1,-1,-1,-1,-1,-1,-1,-1,-1,-1,-1,-1,-1,-1,-1,-1,-1,-1,-1],"split_conditions":[1E0,1E0,1E0,1E0,1E0,4E0,1E0,1E0,1E0,1E0,1E0,1E0,1E0,4E0,-1.8900977E2,1E0,1E0,1E0,-2.0827477E2,1E0,1E0,1E0,1E0,1E0,-1.8181737E2,1E0,2.3893438E1,2E0,8.091626E1,1E0,1E0,1E0,-2.2127464E2,4E0,-2.1239128E2,1E0,3E0,1E0,-2.0925847E2,1E0,3E0,1E0,-1.8703714E2,-2.0310478E2,-2.11123E2,1E0,-2.1637682E2,-1.08025E2,3E0,1E0,4E0,-3.1173514E2,-2.1800334E2,-2.1249539E2,1E0,-2.7295303E2,-2.585385E2,3E0,-9.438034E2,2E0,4E0,1E0,-7.1362085E2,1E0,3E0,-4.2015656E2,-4.5701456E2,-2.942136E2,-1.9740355E2,1E0,1E0,-6.2740875E1,-8.5977104E1,1E0,4E0,1E0,1E0,1E0,-2.1848575E2,-1.4725598E2,4E0,-5.703285E1,-4.2864418E1,-7.728573E1,-9.815514E1,-3.4729315E2,-2.0266739E2,1E0,-3.5052304E2,-3.5473532E2,-3.1962448E2,1E0,-9.3586334E1,1E0,-2.2600609E2,4.3894995E2,-1.5041196E2,-2.7560886E2,-2.140417E2,-1.7759138E2,8.597379E2,-1.8956226E2,1.8150227E3,-9.62178E1,-1.5712346E2,-1.9774506E2,-1.5307053E2,3.3903025E3,-3.189959E2,-2.0899779E2,-1.2932182E2,-1.828745E2,-1.9922057E2],"split_indices":[2,32,25,18,35,0,15,33,33,36,6,17,19,0,0,6,16,6,0,3,3,8,8,33,0,33,0,0,0,15,17,35,0,0,0,20,0,20,0,11,0,7,0,0,0,32,0,0,0,17,0,0,0,0,6,0,0,0,0,0,0,5,0,7,0,0,0,0,0,17,10,0,0,16,0,35,35,15,0,0,0,0,0,0,0,0,0,10,0,0,0,18,0,7,0,0,0,0,0,0,0,0,0,0,0,0,0,0,0,0,0,0,0],"split_type":[0,0,0,0,0,0,0,0,0,0,0,0,0,0,0,0,0,0,0,0,0,0,0,0,0,0,0,0,0,0,0,0,0,0,0,0,0,0,0,0,0,0,0,0,0,0,0,0,0,0,0,0,0,0,0,0,0,0,0,0,0,0,0,0,0,0,0,0,0,0,0,0,0,0,0,0,0,0,0,0,0,0,0,0,0,0,0,0,0,0,0,0,0,0,0,0,0,0,0,0,0,0,0,0,0,0,0,0,0,0,0,0,0],"sum_hessian":[2.8358E4,1.7437E4,1.0921E4,1.1128E4,6.309E3,9.783E3,1.138E3,7.91E3,3.218E3,1.496E3,4.813E3,7.062E3,2.721E3,5.57E2,5.81E2,4.806E3,3.104E3,2.673E3,5.45E2,4.76E2,1.02E3,3.714E3,1.099E3,6.646E3,4.16E2,2.548E3,1.73E2,4.07E2,1.5E2,4.093E3,7.13E2,2.356E3,7.48E2,2.336E3,3.37E2,2.03E2,2.73E2,4.7E1,9.73E2,3.109E3,6.05E2,8.62E2,2.37E2,5.073E3,1.573E3,1.826E3,7.22E2,1.33E2,2.74E2,3.389E3,7.04E2,7.02E2,1.1E1,5.21E2,1.835E3,1.692E3,6.44E2,1.93E2,1E1,1.42E2,1.31E2,3.3E1,1.4E1,2.443E3,6.66E2,3.15E2,2.9E2,6.52E2,2.1E2,9.04E2,9.22E2,1.34E2,1.4E2,2.731E3,6.58E2,5.18E2,1.86E2,1.684E3,1.51E2,9.3E1,1E2,7.6E1,6.6E1,6.5E1,6.6E1,9E0,2.4E1,1.793E3,6.5E2,3.32E2,3.34E2,7.64E2,1.4E2,8.16E2,1.06E2,2.019E3,7.12E2,4.83E2,1.75E2,3.5E1,4.83E2,2E1,1.66E2,1.066E3,6.18E2,4.9E1,5.1E1,1.15E3,6.43E2,1.57E2,6.07E2,6.52E2,1.64E2],"tree_param":{"num_deleted":"0","num_feature":"37","num_nodes":"113","size_leaf_vector":"1"}},{"base_weights":[1.3417672E1,-1.2947314E3,1.279059E4,-1.7956093E3,3.9823284E3,-1.6256149E3,2.1600012E4,-2.2169814E3,1.2208865E3,6.029445E3,-1.8622978E2,-1.1970322E3,-2.0083013E3,3.710361E4,-1.5216496E2,-2.07692E3,-4.2455513E3,-1.1483362E3,3.485201E3,1.0853835E4,9.243927E2,-1.8407787E3,-7.1156726E2,-3.4847776E3,-1.8648009E2,5.5909938E4,-2.6171024E2,-2.316302E3,-1.7342932E3,-5.850326E3,-1.854602E2,-1.7982694E3,5.218209E2,6.619149E3,-1.6799099E3,-2.4945677E2,1.3806526E4,-2.694041E3,1.6293055E3,-1.5058458E2,-2.1326619E3,-4.4284824E2,-9.487818E1,-4.8654517E3,-1.820189E2,4.9739176E4,7.2621753E3,-2.4200967E3,-8.6933624E2,-1.8489908E3,-1.4381415E3,-7.30468E3,-2.622236E2,-2.4085786E3,-8.246901E2,1.1857175E3,-3.020239E2,9.745202E3,-2.6787094E2,-1.7230022E2,-1.5371132E2,1.4330636E4,-3.5226035E2,-3.1586973E3,-2.5355205E2,9.816593E2,3.6546455E3,-2.2823279E2,-1.6157619E2,-6.1596935E1,-2.8589005E1,-5.953008E2,-3.487288E2,6.061783E3,4.4462793E4,-2.2020405E3,-2.842854E3,-1.9245891E2,-5.2224756E2,-1.8667932E2,-1.6166975E2,-1.311483E3,-1.7879552E3,-8.3682196E2,-1.8703688E2,-2.2899934E2,-2.8102762E2,-1.0231322E2,-7.195577E1,-2.8424275E3,1.3335295E3,7.409233E3,1.5762218E4,1.273352E4,1.9008163E3,-4.3348102E2,-2.504235E2,1.5687511E3,-1.6751183E2,3.6925742E2,-1.2069905E2,4.857937E3,4.0178567E3,-2.2980608E2,-1.4835387E2,-3.1227405E2,-2.176857E2,-1.8619183E2,-2.2852451E1,-1.2275878E2,-2.1056738E2,-1.8327199E2,-1.6608623E2,-3.5808844E2,-1.8034036E2,1.8658905E2,6.9793785E1,-1.6099341E2,8.105024E2,-1.7147426E2,1.8194055E3,1.5078866E3,7.952535E2,1.8638522E2,1.2643124E2,-1.5499358E1,-1.1540663E2],"categories":[],"categories_nodes":[],"categories_segments":[],"categories_sizes":[],"default_left":[0,0,0,0,0,0,0,0,0,0,0,0,0,0,0,0,0,0,0,0,0,0,0,0,0,0,0,0,0,0,0,0,0,0,0,0,0,0,0,0,0,0,0,0,0,0,0,0,0,0,0,0,0,0,0,0,0,0,0,0,0,0,0,0,0,0,0,0,0,0,0,0,0,0,0,0,0,0,0,0,0,0,0,0,0,0,0,0,0,0,0,0,0,0,0,0,0,0,0,0,0,0,0,0,0,0,0,0,0,0,0,0,0,0,0,0,0,0,0,0,0,0,0,0,0,0,0],"id":6,"left_children":[1,3,5,7,9,11,13,15,17,19,-1,21,23,25,-1,27,29,31,33,35,37,39,41,43,-1,45,-1,47,49,51,-1,53,55,57,59,-1,61,63,65,-1,67,69,-1,71,-1,73,-1,75,77,79,81,83,-1,85,87,89,-1,91,-1,-1,-1,93,-1,95,-1,97,99,-1,-1,-1,-1,-1,-1,-1,101,103,105,-1,107,-1,-1,109,111,-1,-1,-1,-1,-1,-1,113,115,117,119,121,-1,-1,-1,123,125,-1,-1,-1,-1,-1,-1,-1,-1,-1,-1,-1,-1,-1,-1,-1,-1,-1,-1,-1,-1,-1,-1,-1,-1,-1,-1,-1,-1],"loss_changes":[4.688234E11,6.725977E10,3.3086607E11,2.954104E10,2.6405204E10,1.5980442E8,5.797005E11,5.7847726E9,1.5287931E10,4.023336E10,0E0,1.4526035E8,1.0388864E8,7.232431E11,0E0,1.5605842E9,5.038557E9,1.5130266E9,2.3595856E10,3.3141965E10,2.0321805E9,1.6438528E7,1.6726992E7,9.456538E7,0E0,6.414074E10,0E0,1.6840499E9,2.639872E8,3.6756398E9,0E0,5.939804E8,9.2304186E8,2.6388607E10,7.42144E5,0E0,6.2991483E9,1.566528E6,8.700069E8,0E0,4.435392E6,3.302014E6,0E0,1.5212032E7,0E0,2.5028985E10,0E0,9.593733E8,2.747934E8,2.036736E7,9.495347E7,3.1168922E9,0E0,2.290816E7,7.358512E6,2.0027517E8,0E0,9.426944E9,0E0,0E0,0E0,4.748288E9,0E0,1.1466528E7,0E0,3.4164525E8,3.414477E7,0E0,0E0,0E0,0E0,0E0,0E0,0E0,3.8505021E9,4.736635E8,6.569861E8,0E0,2.2307803E8,0E0,0E0,1.0508698E8,2.61504E5,0E0,0E0,0E0,0E0,0E0,0E0,2.749504E6,1.066359E8,3.0942986E9,8.063906E9,5.4978396E9,0E0,0E0,0E0,2.7740032E7,1.945316E6,0E0,0E0,0E0,0E0,0E0,0E0,0E0,0E0,0E0,0E0,0E0,0E0,0E0,0E0,0E0,0E0,0E0,0E0,0E0,0E0,0E0,0E0,0E0,0E0,0E0,0E0,0E0,0E0],"parents":[2147483647,0,0,1,1,2,2,3,3,4,4,5,5,6,6,7,7,8,8,9,9,11,11,12,12,13,13,15,15,16,16,17,17,18,18,19,19,20,20,21,21,22,22,23,23,25,25,27,27,28,28,29,29,31,31,32,32,33,33,34,34,36,36,37,37,38,38,40,40,41,41,43,43,45,45,47,47,48,48,49,49,50,50,51,51,53,53,54,54,55,55,57,57,61,61,63,63,65,65,66,66,74,74,75,75,76,76,78,78,81,81,82,82,89,89,90,90,91,91,92,92,93,93,97,97,98,98],"right_children":[2,4,6,8,10,12,14,16,18,20,-1,22,24,26,-1,28,30,32,34,36,38,40,42,44,-1,46,-1,48,50,52,-1,54,56,58,60,-1,62,64,66,-1,68,70,-1,72,-1,74,-1,76,78,80,82,84,-1,86,88,90,-1,92,-1,-1,-1,94,-1,96,-1,98,100,-1,-1,-1,-1,-1,-1,-1,102,104,106,-1,108,-1,-1,110,112,-1,-1,-1,-1,-1,-1,114,116,118,120,122,-1,-1,-1,124,126,-1,-1,-1,-1,-1,-1,-1,-1,-1,-1,-1,-1,-1,-1,-1,-1,-1,-1,-1,-1,-1,-1,-1,-1,-1,-1,-1,-1],"split_conditions":[1E0,1E0,1E0,1E0,1E0,1E0,1E0,1E0,1E0,1E0,-1.8622978E2,1E0,1E0,1E0,-1.5216496E2,1E0,1E0,4E0,1E0,1E0,1E0,3E0,3E0,1E0,-1.8648009E2,4E0,-2.6171024E2,1E0,4E0,1E0,-1.854602E2,1E0,1E0,1E0,4E0,-2.4945677E2,1E0,1E0,4E0,-1.5058458E2,1E0,2E0,-9.487818E1,3E0,-1.820189E2,2E0,7.2621753E3,1E0,2E0,1E0,1E0,1E0,-2.622236E2,1E0,2E0,1E0,-3.020239E2,4E0,-2.6787094E2,-1.7230022E2,-1.5371132E2,4E0,-3.5226035E2,1E0,-2.5355205E2,3E0,1E0,-2.2823279E2,-1.6157619E2,-6.1596935E1,-2.8589005E1,-5.953008E2,-3.487288E2,6.061783E3,3E0,1E0,4E0,-1.9245891E2,1E0,-1.8667932E2,-1.6166975E2,1E0,1E0,-8.3682196E2,-1.8703688E2,-2.2899934E2,-2.8102762E2,-1.0231322E2,-7.195577E1,1E0,1E0,1E0,1E0,3E0,1.9008163E3,-4.3348102E2,-2.504235E2,2E0,1E0,3.6925742E2,-1.2069905E2,4.857937E3,4.0178567E3,-2.2980608E2,-1.4835387E2,-3.1227405E2,-2.176857E2,-1.8619183E2,-2.2852451E1,-1.2275878E2,-2.1056738E2,-1.8327199E2,-1.6608623E2,-3.5808844E2,-1.8034036E2,1.8658905E2,6.9793785E1,-1.6099341E2,8.105024E2,-1.7147426E2,1.8194055E3,1.5078866E3,7.952535E2,1.8638522E2,1.2643124E2,-1.5499358E1,-1.1540663E2],"split_indices":[12,24,22,25,2,36,2,9,15,13,0,3,3,6,0,2,2,0,2,22,22,0,0,5,0,0,0,14,0,6,0,2,6,6,0,0,6,3,0,0,5,0,0,0,0,0,0,32,0,17,32,3,0,6,0,22,0,0,0,0,0,0,0,5,0,0,6,0,0,0,0,0,0,0,0,15,0,0,22,0,0,16,8,0,0,0,0,0,0,3,2,22,22,0,0,0,0,0,6,0,0,0,0,0,0,0,0,0,0,0,0,0,0,0,0,0,0,0,0,0,0,0,0,0,0,0,0],"split_type":[0,0,0,0,0,0,0,0,0,0,0,0,0,0,0,0,0,0,0,0,0,0,0,0,0,0,0,0,0,0,0,0,0,0,0,0,0,0,0,0,0,0,0,0,0,0,0,0,0,0,0,0,0,0,0,0,0,0,0,0,0,0,0,0,0,0,0,0,0,0,0,0,0,0,0,0,0,0,0,0,0,0,0,0,0,0,0,0,0,0,0,0,0,0,0,0,0,0,0,0,0,0,0,0,0,0,0,0,0,0,0,0,0,0,0,0,0,0,0,0,0,0,0,0,0,0,0],"sum_hessian":[2.8047E4,2.5443E4,2.604E3,2.3238E4,2.205E3,9.88E2,1.616E3,2.039E4,2.848E3,1.633E3,5.72E2,4.68E2,5.2E2,9.67E2,6.49E2,1.9075E4,1.315E3,1.392E3,1.456E3,8.39E2,7.94E2,2E2,2.68E2,4.4E1,4.76E2,6.56E2,3.11E2,1.1226E4,7.849E3,7.86E2,5.29E2,1.002E3,3.9E2,9.06E2,5.5E2,1.52E2,6.87E2,1.29E2,6.65E2,9.6E1,1.04E2,1.27E2,1.41E2,2.3E1,2.1E1,4.82E2,1.74E2,1.0474E4,7.52E2,5.654E3,2.195E3,5.41E2,2.45E2,6.15E2,3.87E2,3.29E2,6.1E1,6.78E2,2.28E2,4.14E2,1.36E2,6.67E2,2E1,2.8E1,1.01E2,5.05E2,1.6E2,7.8E1,2.6E1,5.9E1,6.8E1,1.1E1,1.2E1,1.54E2,3.28E2,6.914E3,3.56E3,1.85E2,5.67E2,5.245E3,4.09E2,1.615E3,5.8E2,4.52E2,8.9E1,4.8E2,1.35E2,1.31E2,2.56E2,1.1E1,3.18E2,4.9E2,1.88E2,5E2,1.67E2,8E0,2E1,3.34E2,1.71E2,1.59E2,1E0,1.62E2,1.66E2,6.097E3,8.17E2,2.504E3,1.056E3,1.01E2,4.66E2,1.463E3,1.52E2,4.19E2,1.61E2,5E0,6E0,1.72E2,1.46E2,3.5E1,4.55E2,2.3E1,1.65E2,3.34E2,1.66E2,1.67E2,1.67E2,1.7E2,1E0],"tree_param":{"num_deleted":"0","num_feature":"37","num_nodes":"127","size_leaf_vector":"1"}},{"base_weights":[-4.7725863E0,-1.1638007E3,1.1360939E4,-1.5717672E3,2.750272E3,-1.5021138E3,3.7474523E4,-1.8946064E3,7.185516E2,7.5933394E3,-2.9110574E3,-5.5752155E2,-1.7277322E3,7.403879E4,-6.4049014E3,-1.7546182E3,-3.9071594E3,4.1132725E3,-2.1792043E3,-1.7729702E3,1.689117E4,-1.7434292E3,-3.756253E3,-1.2428806E3,4.8055264E1,-1.9036652E3,-1.4700947E3,-2.0748333E3,1.1753918E5,-8.603802E3,4.621929E3,-1.8961171E3,-6.069E2,-1.8716628E3,-7.5868916E3,-1.680272E3,1.1451993E4,8.239514E1,-2.624629E3,-2.006486E2,-1.5993127E3,-2.125653E2,1.9304477E4,-2.215516E3,-1.695902E2,-5.0199573E2,-4.396591E3,-1.9119701E3,-1.8234656E2,-1.345204E2,3.4299725E2,-1.6797756E3,-2.365847E2,-2.0457562E2,-1.57596E3,-1.2576742E3,-8.63193E2,-1.6976731E3,1.2615495E5,1.1214363E4,-1.351389E4,-1.5444965E3,-2.3412195E3,-1.8435927E3,3.4957025E2,-2.207705E3,-1.6622241E3,-8.662544E3,-5.8037266E3,-2.0914043E3,-1.4213329E3,-1.557152E2,1.3022038E4,-1.9937571E3,3.256879E3,-1.7623081E3,-3.4155647E3,-1.4554152E2,-1.7064796E2,2.9320207E4,1.5617394E4,-2.694873E2,-1.7440405E2,7.157798E2,-1.7330264E3,-4.5392393E3,-1.8941705E2,-1.6703696E2,-2.3176192E2,-1.4228966E2,4.7180692E2,-2.1507994E2,5.737624E2,-1.4032314E3,-1.7083623E2,2.5300406E1,-4.3414658E2,-1.03731094E2,-1.5905391E2,-3.5500266E2,-8.31355E2,1.9563697E5,9.780914E4,2.218955E4,5.3992803E3,-6.326511E3,-1.5434111E4,-1.8650347E3,-1.4484829E3,-3.0369048E3,-1.8595098E3,-1.8111717E2,-2.1880151E2,1.5345818E3,-1.4692073E3,-2.3697815E2,-1.688217E2,-1.6741571E2,-1.2022442E2,-1.0090468E4,-7.9264667E2,-5.6276117E2,-7.3775555E2,-2.2990819E2,-1.729756E2,-1.0498414E3,-1.6282195E2,-5.6990607E2,1.4012878E4,-2.2421147E3,-1.7297908E2,4.342278E3,2.3324362E1,-1.9960912E3,-1.7222453E2,-1.5624615E3,-3.76455E3,-3.4213156E2,3.4160293E4,1.8865775E4,8.403395E3,1.4223883E2,3.322078E0,-1.2022414E2,-2.182961E2,-3.6572803E3,-4.9214706E2,1.3966333E1,6.5115845E1,9.866683E2,-7.3040764E1,-1.6199083E2,-1.2198016E2,-2.4869564E1,-6.7179436E1,-3.20307E1,-1.8506302E3,2.0882916E4,1.6151817E4,1.1566833E5,5.226014E4,2.6183103E3,1.6896288E3,1.0350308E3,2.8402305E3,-4.0600188E3,-8.3402686E2,-1.5693961E4,-8.235887E1,-1.7727753E2,-2.5169507E2,-1.1644582E2,-1.7280344E2,-2.770883E2,-6.1775037E2,-1.7665968E2,-3.409666E2,3.9690317E2,9.845274E1,-1.890847E2,4.7497607E2,-2.7343622E2,-1.01391174E3,-1.7104893E2,-1.00138374E2,1.1425874E3,1.7039598E3,-2.3460977E2,-1.6066136E2,5.0065063E2,2.7221875E2,-2.2411743E2,-1.6918114E2,-1.1351955E2,-2.0089803E2,-3.8540387E2,-2.0871667E2,3.8090234E3,2.7287175E3,1.5492228E3,2.070342E3,1.0744253E3,4.8031607E2,-3.0398672E2,-3.945856E2,1.2106115E2,4.3096794E1,-2.5998413E2,1.8852493E1,-1.4311148E2,-2.7033807E2,1.216714E4,9.066777E3,6.312294E3,4.0412363E3,3.7386862E2,1.7839842E2,-2.6571542E2,-5.224059E2,-1.172143E3,-1.6109089E3,5.647471E-1,-1.42912245E1],"categories":[],"categories_nodes":[],"categories_segments":[],"categories_sizes":[],"default_left":[0,0,0,0,0,0,0,0,0,0,0,0,0,0,0,0,0,0,0,0,0,0,0,0,0,0,0,0,0,0,0,0,0,0,0,0,0,0,0,0,0,0,0,0,0,0,0,0,0,0,0,0,0,0,0,0,0,0,0,0,0,0,0,0,0,0,0,0,0,0,0,0,0,0,0,0,0,0,0,0,0,0,0,0,0,0,0,0,0,0,0,0,0,0,0,0,0,0,0,0,0,0,0,0,0,0,0,0,0,0,0,0,0,0,0,0,0,0,0,0,0,0,0,0,0,0,0,0,0,0,0,0,0,0,0,0,0,0,0,0,0,0,0,0,0,0,0,0,0,0,0,0,0,0,0,0,0,0,0,0,0,0,0,0,0,0,0,0,0,0,0,0,0,0,0,0,0,0,0,0,0,0,0,0,0,0,0,0,0,0,0,0,0,0,0,0,0,0,0,0,0,0,0,0,0,0,0,0,0,0,0,0,0,0,0,0,0,0,0,0,0,0,0],"id":7,"left_children":[1,3,5,7,9,11,13,15,17,19,21,23,25,27,29,31,33,35,37,39,41,43,45,47,49,51,53,55,57,59,-1,61,63,65,67,69,71,73,75,-1,77,-1,79,81,-1,83,85,87,89,-1,91,93,-1,95,97,99,-1,-1,101,103,105,107,109,111,113,115,117,119,121,123,125,-1,127,129,131,133,135,-1,-1,137,139,-1,-1,141,143,145,-1,-1,-1,-1,147,-1,149,151,-1,-1,153,-1,-1,-1,155,157,159,161,163,165,167,169,171,173,175,-1,-1,177,179,-1,-1,-1,-1,181,-1,-1,-1,-1,-1,183,-1,-1,185,187,-1,189,-1,191,-1,193,195,-1,197,199,201,-1,-1,-1,-1,203,-1,-1,-1,205,-1,-1,-1,-1,-1,207,209,-1,-1,211,213,-1,-1,-1,215,217,-1,219,221,-1,-1,-1,-1,-1,-1,-1,-1,-1,-1,-1,-1,-1,-1,-1,-1,-1,-1,-1,-1,-1,-1,-1,-1,-1,-1,-1,-1,-1,-1,-1,-1,-1,-1,-1,-1,-1,-1,-1,-1,-1,-1,-1,-1,-1,-1,-1,-1,-1,-1,-1,-1,-1,-1],"loss_changes":[3.7396028E11,4.113976E10,8.8246675E11,1.7251684E10,6.670317E10,3.7433677E8,1.3915052E12,5.754036E9,2.8369246E10,1.14200175E11,1.1007232E9,1.4158754E8,6.161101E7,1.566334E12,4.610523E10,3.103953E9,9.94012E9,5.64821E10,1.5676872E9,2.3311872E7,3.02389E10,6.855424E6,1.352279E9,1.131861E8,7.5250776E7,8.305075E7,7.751693E7,9.16111E8,3.5098827E11,3.7128946E10,0E0,2.6602947E9,2.4846497E9,5.66464E7,8.569692E8,7.612595E7,1.1989287E10,1.7003063E9,8.8063386E8,0E0,3.376384E6,0E0,2.110854E10,4.340224E6,0E0,1.6314531E8,1.8523546E8,5.733184E6,5.1796468E7,0E0,8.8131736E7,2.108928E6,0E0,4.9420025E6,2.559232E6,1.485261E8,0E0,0E0,5.3823983E11,4.7306363E9,4.1117737E9,2.9004186E8,2.5110897E9,6.265856E6,2.5562527E9,2.3447424E7,9.07392E5,2.2797926E8,8.650752E6,1.742848E7,3.356787E7,0E0,9.781305E9,6.348608E6,3.3373594E8,2.406656E6,4.3193805E8,0E0,0E0,2.4838463E10,9.894576E9,0E0,0E0,2.647936E7,1.027176E7,1.549394E8,0E0,0E0,0E0,0E0,2.411016E6,0E0,7.55721E7,3.68992E5,0E0,0E0,1.1991605E6,0E0,0E0,0E0,1.0748529E8,2.728657E9,1.590893E11,1.0721485E8,6.16769E8,2.6737331E8,9.561047E8,1.2719667E8,5.7950925E8,2.548605E9,6.334679E8,0E0,0E0,9.575519E8,1.2361539E9,0E0,0E0,0E0,0E0,6.631424E6,0E0,0E0,0E0,0E0,0E0,3.633392E6,0E0,0E0,3.6968858E9,1.318976E6,0E0,6.707955E7,0E0,2.547136E6,0E0,1.8514672E7,7.736576E7,0E0,2.6341212E9,1.5080735E9,1.086124E9,0E0,0E0,0E0,0E0,1.6334336E7,0E0,0E0,0E0,1.2669464E7,0E0,0E0,0E0,0E0,0E0,4.296602E7,1.6880176E7,0E0,0E0,1.0729816E10,5.042356E9,0E0,0E0,0E0,2.6544896E7,4.000749E7,0E0,2.0036813E8,2.7452504E4,0E0,0E0,0E0,0E0,0E0,0E0,0E0,0E0,0E0,0E0,0E0,0E0,0E0,0E0,0E0,0E0,0E0,0E0,0E0,0E0,0E0,0E0,0E0,0E0,0E0,0E0,0E0,0E0,0E0,0E0,0E0,0E0,0E0,0E0,0E0,0E0,0E0,0E0,0E0,0E0,0E0,0E0,0E0,0E0,0E0,0E0,0E0,0E0,0E0,0E0,0E0,0E0,0E0,0E0],"parents":[2147483647,0,0,1,1,2,2,3,3,4,4,5,5,6,6,7,7,8,8,9,9,10,10,11,11,12,12,13,13,14,14,15,15,16,16,17,17,18,18,19,19,20,20,21,21,22,22,23,23,24,24,25,25,26,26,27,27,28,28,29,29,31,31,32,32,33,33,34,34,35,35,36,36,37,37,38,38,40,40,42,42,43,43,45,45,46,46,47,47,48,48,50,50,51,51,53,53,54,54,55,55,58,58,59,59,60,60,61,61,62,62,63,63,64,64,65,65,66,66,67,67,68,68,69,69,70,70,72,72,73,73,74,74,75,75,76,76,79,79,80,80,83,83,84,84,85,85,90,90,92,92,93,93,96,96,100,100,101,101,102,102,103,103,104,104,105,105,106,106,107,107,108,108,109,109,110,110,113,113,114,114,119,119,125,125,128,128,129,129,131,131,133,133,135,135,136,136,138,138,139,139,140,140,145,145,149,149,155,155,156,156,159,159,160,160,164,164,165,165,167,167,168,168],"right_children":[2,4,6,8,10,12,14,16,18,20,22,24,26,28,30,32,34,36,38,40,42,44,46,48,50,52,54,56,58,60,-1,62,64,66,68,70,72,74,76,-1,78,-1,80,82,-1,84,86,88,90,-1,92,94,-1,96,98,100,-1,-1,102,104,106,108,110,112,114,116,118,120,122,124,126,-1,128,130,132,134,136,-1,-1,138,140,-1,-1,142,144,146,-1,-1,-1,-1,148,-1,150,152,-1,-1,154,-1,-1,-1,156,158,160,162,164,166,168,170,172,174,176,-1,-1,178,180,-1,-1,-1,-1,182,-1,-1,-1,-1,-1,184,-1,-1,186,188,-1,190,-1,192,-1,194,196,-1,198,200,202,-1,-1,-1,-1,204,-1,-1,-1,206,-1,-1,-1,-1,-1,208,210,-1,-1,212,214,-1,-1,-1,216,218,-1,220,222,-1,-1,-1,-1,-1,-1,-1,-1,-1,-1,-1,-1,-1,-1,-1,-1,-1,-1,-1,-1,-1,-1,-1,-1,-1,-1,-1,-1,-1,-1,-1,-1,-1,-1,-1,-1,-1,-1,-1,-1,-1,-1,-1,-1,-1,-1,-1,-1,-1,-1,-1,-1,-1,-1],"split_conditions":[1E0,1E0,1E0,1E0,2E1,3E0,1.9E1,1E0,1.7E1,1E0,1E0,1E0,1E0,1E0,4.4E1,1E0,1E0,1E0,2.1E1,1E0,1E0,1E0,2.4E1,1E0,1E0,1E0,6E0,1E0,-1E0,2.4E1,4.621929E3,1E0,1E0,1E0,2.2E1,1E0,1E0,1E0,1E0,-2.006486E2,5E0,-2.125653E2,4E0,1E0,-1.695902E2,2.2E1,4.4E1,1E0,0E0,-1.345204E2,-1E0,4E0,-2.365847E2,4E0,7E0,-1E0,-8.63193E2,-1.6976731E3,5E0,2.1E1,2.8E1,1E0,1.8E1,1E0,2.7E1,1E0,4.4E1,6E0,4.4E1,1E0,5E0,-1.557152E2,-1E0,1E0,2E1,1E0,2.5E1,-1.4554152E2,-1.7064796E2,-1E0,1.5E1,-2.694873E2,-1.7440405E2,2.1E1,2.3E1,3E1,-1.8941705E2,-1.6703696E2,-2.3176192E2,-1.4228966E2,1E0,-2.1507994E2,2E0,1E0,-1.7083623E2,2.5300406E1,5E0,-1.03731094E2,-1.5905391E2,-3.5500266E2,2E0,3E0,1.5E1,2E1,2.2E1,2.6E1,1E0,1E0,1.9E1,1E0,1E0,-1.8111717E2,-2.1880151E2,4E0,4.4E1,-2.3697815E2,-1.688217E2,-1.6741571E2,-1.2022442E2,-1E0,-7.9264667E2,-5.6276117E2,-7.3775555E2,-2.2990819E2,-1.729756E2,-1E0,-1.6282195E2,-5.6990607E2,9E0,1E0,-1.7297908E2,1.9E1,2.3324362E1,1E0,-1.7222453E2,2.3E1,4.4E1,-3.4213156E2,2E0,8E0,1.8E1,1.4223883E2,3.322078E0,-1.2022414E2,-2.182961E2,2.6E1,-4.9214706E2,1.3966333E1,6.5115845E1,1E0,-7.3040764E1,-1.6199083E2,-1.2198016E2,-2.4869564E1,-6.7179436E1,1E0,5E0,2.0882916E4,1.6151817E4,1.3E1,1.7E1,2.6183103E3,1.6896288E3,1.0350308E3,2.3E1,2.5E1,-8.3402686E2,3E1,3.6E1,-1.7727753E2,-2.5169507E2,-1.1644582E2,-1.7280344E2,-2.770883E2,-6.1775037E2,-1.7665968E2,-3.409666E2,3.9690317E2,9.845274E1,-1.890847E2,4.7497607E2,-2.7343622E2,-1.01391174E3,-1.7104893E2,-1.00138374E2,1.1425874E3,1.7039598E3,-2.3460977E2,-1.6066136E2,5.0065063E2,2.7221875E2,-2.2411743E2,-1.6918114E2,-1.1351955E2,-2.0089803E2,-3.8540387E2,-2.0871667E2,3.8090234E3,2.7287175E3,1.5492228E3,2.070342E3,1.0744253E3,4.8031607E2,-3.0398672E2,-3.945856E2,1.2106115E2,4.3096794E1,-2.5998413E2,1.8852493E1,-1.4311148E2,-2.7033807E2,1.216714E4,9.066777E3,6.312294E3,4.0412363E3,3.7386862E2,1.7839842E2,-2.6571542E2,-5.224059E2,-1.172143E3,-1.6109089E3,5.647471E-1,-1.42912245E1],"split_indices":[12,14,4,15,1,1,1,9,1,4,4,34,2,22,1,13,4,4,1,2,22,2,1,2,3,22,1,20,1,1,0,4,4,2,1,2,22,4,4,0,1,0,1,3,0,1,1,22,1,0,1,1,0,1,1,1,0,0,1,1,1,2,1,34,1,3,1,1,1,3,1,0,1,2,1,2,1,0,0,1,1,0,0,1,1,1,0,0,0,0,1,0,1,34,0,0,1,0,0,0,1,1,1,1,1,1,20,19,1,8,19,0,0,1,1,0,0,0,0,1,0,0,0,0,0,1,0,0,1,3,0,1,0,3,0,1,1,0,1,1,1,0,0,0,0,1,0,0,0,1,0,0,0,0,0,34,1,0,0,1,1,0,0,0,1,1,0,1,1,0,0,0,0,0,0,0,0,0,0,0,0,0,0,0,0,0,0,0,0,0,0,0,0,0,0,0,0,0,0,0,0,0,0,0,0,0,0,0,0,0,0,0,0,0,0,0,0,0,0,0,0,0,0],"split_type":[0,0,0,0,0,0,0,0,0,0,0,0,0,0,0,0,0,0,0,0,0,0,0,0,0,0,0,0,0,0,0,0,0,0,0,0,0,0,0,0,0,0,0,0,0,0,0,0,0,0,0,0,0,0,0,0,0,0,0,0,0,0,0,0,0,0,0,0,0,0,0,0,0,0,0,0,0,0,0,0,0,0,0,0,0,0,0,0,0,0,0,0,0,0,0,0,0,0,0,0,0,0,0,0,0,0,0,0,0,0,0,0,0,0,0,0,0,0,0,0,0,0,0,0,0,0,0,0,0,0,0,0,0,0,0,0,0,0,0,0,0,0,0,0,0,0,0,0,0,0,0,0,0,0,0,0,0,0,0,0,0,0,0,0,0,0,0,0,0,0,0,0,0,0,0,0,0,0,0,0,0,0,0,0,0,0,0,0,0,0,0,0,0,0,0,0,0,0,0,0,0,0,0,0,0,0,0,0,0,0,0,0,0,0,0,0,0,0,0,0,0,0,0],"sum_hessian":[2.8386E4,2.576E4,2.626E3,2.3329E4,2.431E3,1.76E3,8.66E2,2.0447E4,2.882E3,1.31E3,1.121E3,3.4E2,1.42E3,4.72E2,3.94E2,1.9119E4,1.328E3,1.327E3,1.555E3,6.53E2,6.57E2,4.72E2,6.49E2,1.59E2,1.81E2,8.4E2,5.8E2,1.72E2,3E2,3.79E2,1.5E1,1.702E4,2.099E3,8.56E2,4.72E2,7.42E2,5.85E2,2.56E2,1.299E3,2.74E2,3.79E2,7.4E1,5.83E2,3.9E1,4.33E2,1.07E2,5.42E2,9.7E1,6.2E1,3.1E1,1.5E2,5.69E2,2.71E2,4.5E1,5.35E2,1.54E2,1.8E1,1.8E1,2.82E2,7.5E1,3.04E2,9.511E3,7.509E3,9.15E2,1.184E3,3.25E2,5.31E2,2.92E2,1.8E2,2.84E2,4.58E2,6.3E1,5.22E2,1.55E2,1.01E2,6.23E2,6.76E2,1.68E2,2.11E2,1.55E2,4.28E2,1.7E1,2.2E1,5.4E1,5.3E1,5.12E2,3E1,6.4E1,3.3E1,2.1E1,4.1E1,1.2E1,1.38E2,5.8E1,5.11E2,1.5E1,3E1,1.6E1,5.19E2,2.3E1,1.31E2,8E1,2.02E2,2.5E1,5E1,6.5E1,2.39E2,2.188E3,7.323E3,3.07E3,4.439E3,8.42E2,7.3E1,7.17E2,4.67E2,2.45E2,8E1,5.15E2,1.6E1,9.5E1,1.97E2,1.66E2,1.4E1,1.77E2,1.07E2,1.66E2,2.92E2,2.6E1,4.96E2,7.6E1,7.9E1,7.4E1,2.7E1,8.4E1,5.39E2,1.08E2,5.68E2,2E1,1.35E2,2.94E2,1.34E2,2.6E1,2.8E1,2.6E1,2.7E1,1.58E2,3.54E2,1.5E1,2.6E1,1.05E2,3.3E1,2.3E1,3.5E1,1.8E1,1.2E1,7.4E1,5.7E1,5.4E1,2.6E1,1.44E2,5.8E1,1.2E1,1.3E1,1.6E1,3.4E1,3.2E1,3.3E1,2.35E2,4E0,1.92E3,2.68E2,3.635E3,3.688E3,2.832E3,2.38E2,4.19E3,2.49E2,1.31E2,5.86E2,4.38E2,2.9E1,1E0,9.4E1,9E0,1.57E2,2.7E2,2.26E2,6.3E1,1.3E1,5.1E1,2.3E1,4.3E1,4.1E1,5.7E1,5.1E1,5.38E2,3E1,8.3E1,5.2E1,1.07E2,1.87E2,8E1,5.4E1,5.4E1,1.04E2,7.4E1,3.1E1,5E0,6.9E1,4E1,1.7E1,1.13E2,3.1E1,2.8E1,3E1,1.7E1,1.7E1,1.6E1,1.6E1,2.5E1,2.1E2,2E0,2E0],"tree_param":{"num_deleted":"0","num_feature":"37","num_nodes":"223","size_leaf_vector":"1"}},{"base_weights":[-1.1257405E1,-1.0750688E3,1.0349362E4,-1.4834026E3,3.2044885E3,-1.3442244E3,3.453043E4,-1.8484539E3,1.01615106E3,8.352285E3,-2.1295813E3,-3.9944498E2,-1.5570955E3,6.5858305E4,-4.3310444E3,-1.4776461E3,-2.3166807E3,4.2149062E3,-1.8705317E3,-1.7968229E3,1.5205963E4,1.0749578E3,-2.7237925E3,-1.160346E2,-1.4975146E2,-1.4213073E3,-2.1194888E2,-1.9549462E3,1.0701263E5,-7.591037E3,5.8523082E4,-1.436713E3,-1.7249456E3,-2.6817104E3,-1.4663816E3,-8.684262E2,1.163773E4,7.1860034E2,-2.3516348E3,-2.0924663E2,-1.5123096E3,2.562862E4,3.003164E3,-2.4759146E3,2.1697366E3,-3.7690251E3,-1.5194565E3,-9.260183E2,5.383387E2,-1.00049384E3,-1.4690299E3,-1.1255447E3,-7.8603955E2,-1.6401666E3,1.14148945E5,1.2219791E4,-1.2167994E4,2.0160252E4,1.382825E4,-1.4679689E3,-1.0130453E3,-1.6300989E3,-2.27571E2,-3.6945593E3,-1.9485663E3,-5.5444543E2,-1.886597E3,-1.1131779E2,-2.3319563E3,-8.867262E1,2.2125994E4,-1.5101353E3,4.7373545E3,-1.3730804E3,-2.744301E3,-1.4625248E3,-2.7545813E2,-1.981308E2,3.0533547E4,2.0222253E3,6.2584976E3,-1.9111491E2,-2.7609183E2,7.277451E2,5.994832E3,-1.5191173E2,-5.231276E3,3.5766452E2,-2.0656794E3,-6.2116547E2,-2.0230302E2,-1.9070853E2,7.5331445E2,-1.3186017E3,1.8990162E1,-1.5452748E3,-1.4060669E3,-3.1699057E2,-7.741151E2,1.7049239E5,9.104082E4,2.0909508E4,5.775362E3,-5.883818E3,-1.3571902E4,1.1248517E4,3.3951672E3,-1.4895831E3,-1.1596438E3,-1.4784271E3,2.3432181E2,-1.7123845E3,-1.2311309E2,-3.49794E3,-5.562608E3,-1.8641332E3,-3.0670317E3,-1.4740071E3,4.5662814E2,-2.0083129E3,1.1948702E3,8.823204E2,-1.1597458E3,-2.4706055E2,-2.1878923E2,-1.8029596E3,4.8840264E3,-1.2519032E2,2.498793E4,-8.6715326E2,-2.2187132E2,-1.5532373E2,8.634697E3,-1.142678E3,-2.2094714E2,-1.704714E3,-3.47382E3,-1.2616022E2,-1.5534892E2,3.402266E4,1.2972694E4,4.568309E3,6.6440607E2,4.3064497E3,1.147703E3,-8.563327E2,2.3626648E3,8.099482E2,3.685436E3,-5.42092E3,-1.9695614E3,-4.3213263E2,2.5614155E3,-1.5811497E3,-2.3590708E3,-1.2693202E2,-1.8953578E2,1.0821956E3,-4.2288016E2,-1.17220375E2,-1.4756868E2,2.262739E2,-2.3406796E2,-1.7669188E2,-1.5039764E2,-5.9688885E1,-1.4278097E3,-2.368108E0,-1.654352E3,1.5348136E5,2.0597709E4,1.1171831E5,6.0547023E4,1.4918152E4,3.256606E3,1.6020958E3,1.3709368E4,-7.0960723E3,-2.0972512E3,-1.9450932E2,-1.396955E4,6.446776E2,1.4760902E3,-1.530049E2,-1.400449E2,-7.192929E1,-1.5250764E2,-1.1744496E2,-1.5812589E2,3.3140802E2,-1.1740271E2,-1.7913461E2,-1.3257188E2,-3.864066E2,-2.5138057E2,-6.6887714E2,-4.8411456E2,-1.8117735E2,-3.137059E2,-3.4064035E2,-2.935481E2,-2.1530862E2,-9.176809E1,9.880068E1,-1.7007648E2,-2.1352214E2,-1.5528581E2,-6.642208E1,8.179758E2,2.0631533E1,2.7057327E2,-6.672573E1,-1.454785E2,-2.8742538E2,-4.9292903E0,2.56756E2,9.2169385E2,1.9413671E3,4.158735E3,-3.6126236E1,-1.545692E2,-7.817605E1,2.4481432E2,5.6064325E2,1.5804899E3,-1.4213223E2,-2.2393356E1,-1.8578462E2,-1.5660008E2,-2.1158093E2,-4.7203604E2,-2.7944247E2,3.6306821E3,1.00647034E3,2.1146152E3,-3.064171E2,6.138579E2,2.51499E1,2.5872394E2,2.9801724E2,4.8868057E2,1.0934834E2,-2.0866551E2,4.0844614E2,1.8020747E2,1.1090987E2,5.4583093E2,-3.6580872E2,-5.890941E2,-3.3312625E2,1.3090514E2,-1.4571289E2,-1.6421608E1,-1.5059505E2,3.856923E2,-1.714833E2,-1.1223335E2,-1.5580827E2,-2.6477194E2,-7.899987E1,3.0426334E1,2.433246E1,1.4465868E2,-2.0147406E1,-6.0401833E1,3.7175327E1,5.5652995E0,-3.220297E1,6.6343813E0,-1.01848015E2,-1.4355626E2,-1.03576004E2,5.4601063E1,-1.19591446E2,-2.5361095E2,1.7482076E4,9.634823E3,1.0128104E4,1.3452567E4,7.5023647E3,4.3109062E3,1.7619131E3,1.086098E3,5.202046E2,-9.798662E0,1.530055E3,7.785131E2,-5.1705615E2,-8.775366E2,9.829731E0,-4.6204922E2,1.1537303E1,-2.5526009E1,-1.1138839E3,-1.459957E3],"categories":[],"categories_nodes":[],"categories_segments":[],"categories_sizes":[],"default_left":[0,0,0,0,0,0,0,0,0,0,0,0,0,0,0,0,0,0,0,0,0,0,0,0,0,0,0,0,0,0,0,0,0,0,0,0,0,0,0,0,0,0,0,0,0,0,0,0,0,0,0,0,0,0,0,0,0,0,0,0,0,0,0,0,0,0,0,0,0,0,0,0,0,0,0,0,0,0,0,0,0,0,0,0,0,0,0,0,0,0,0,0,0,0,0,0,0,0,0,0,0,0,0,0,0,0,0,0,0,0,0,0,0,0,0,0,0,0,0,0,0,0,0,0,0,0,0,0,0,0,0,0,0,0,0,0,0,0,0,0,0,0,0,0,0,0,0,0,0,0,0,0,0,0,0,0,0,0,0,0,0,0,0,0,0,0,0,0,0,0,0,0,0,0,0,0,0,0,0,0,0,0,0,0,0,0,0,0,0,0,0,0,0,0,0,0,0,0,0,0,0,0,0,0,0,0,0,0,0,0,0,0,0,0,0,0,0,0,0,0,0,0,0,0,0,0,0,0,0,0,0,0,0,0,0,0,0,0,0,0,0,0,0,0,0,0,0,0,0,0,0,0,0,0,0,0,0,0,0,0,0,0,0,0,0,0,0,0,0,0,0,0,0,0,0,0,0,0,0,0,0,0,0,0,0,0,0,0,0,0,0,0,0,0,0],"id":8,"left_children":[1,3,5,7,9,11,13,15,17,19,21,23,25,27,29,31,33,35,37,39,41,43,45,47,-1,49,-1,51,53,55,57,59,61,63,65,67,69,71,73,-1,75,77,79,81,83,85,87,89,91,93,95,97,-1,-1,99,101,103,105,-1,107,109,111,-1,113,115,117,119,121,123,125,127,129,131,133,135,137,-1,-1,139,141,143,-1,-1,145,147,-1,149,151,153,155,-1,-1,157,159,161,163,165,-1,167,169,171,173,175,177,179,181,-1,183,185,187,189,191,-1,193,195,197,199,201,203,205,207,209,211,-1,-1,213,215,-1,217,219,-1,221,223,225,-1,227,229,-1,-1,231,233,235,237,239,-1,241,243,-1,245,247,249,251,253,255,257,-1,259,261,263,-1,-1,265,267,-1,-1,-1,269,271,273,275,-1,277,279,281,-1,283,285,287,289,291,293,-1,-1,-1,-1,-1,-1,-1,-1,-1,-1,-1,-1,-1,-1,-1,-1,-1,-1,-1,-1,-1,-1,-1,-1,-1,-1,-1,-1,-1,-1,-1,-1,-1,-1,-1,-1,-1,-1,-1,-1,-1,-1,-1,-1,-1,-1,-1,-1,-1,-1,-1,-1,-1,-1,-1,-1,-1,-1,-1,-1,-1,-1,-1,-1,-1,-1,-1,-1,-1,-1,-1,-1,-1,-1,-1,-1,-1,-1,-1,-1,-1,-1,-1,-1,-1,-1,-1,-1,-1,-1,-1,-1,-1,-1,-1,-1,-1,-1,-1,-1,-1,-1,-1,-1,-1,-1,-1,-1,-1,-1,-1,-1,-1,-1],"loss_changes":[3.1082434E11,4.4696764E10,7.4258304E11,2.1306114E10,6.119579E10,3.5555456E8,1.0424202E12,3.5337748E9,2.7487648E10,7.89069E10,2.0879969E9,1.0159006E8,1.073367E8,1.3230526E12,7.892248E10,1.126359E8,2.790146E9,5.3288657E10,1.9511153E9,3.536E7,8.602768E10,6.740083E8,1.1574149E9,1.3883678E8,0E0,2.1966336E7,0E0,8.727907E8,2.6168551E11,3.3244445E10,5.534833E10,1.2779725E8,8.039373E7,4.6687273E9,1.03591936E9,9.2939526E8,7.059799E10,2.2105124E9,5.0343526E8,0E0,1.0628864E7,4.949051E10,9.868416E8,1.322848E6,7.237169E8,1.6172785E9,4.426546E8,3.7871344E7,7.766411E7,3.959035E7,2.848768E6,1.1177949E8,0E0,0E0,3.47734E11,3.7432586E9,2.5404006E9,1.338771E9,0E0,5.885133E7,3.916048E8,4.3097856E7,0E0,9.513042E8,3.3944576E8,7.956047E8,6.970168E8,5.7815725E8,3.07328E5,2.327506E9,2.0303806E10,7.05169E7,1.6793641E9,7.070374E7,7.0773146E8,2.243808E6,0E0,0E0,1.8552914E10,8.3358835E8,6.840261E8,0E0,0E0,2.5323771E8,1.4512678E8,0E0,1.7427405E8,1.7167747E8,4.37504E7,2.577736E7,0E0,0E0,5.229263E7,4.08912E5,1.6266085E6,1.580672E6,9.422592E6,0E0,9.306296E7,1.6676815E10,1.1934289E11,1.5394918E9,1.3355757E9,2.4217344E8,1.2845998E9,7.34953E7,0E0,2.8483584E7,9.545421E7,1.3490752E7,8.019677E8,3.240064E7,0E0,8.528855E8,1.7074022E8,2.2099251E8,1.385216E6,1.6727386E8,4.6940854E8,9.968589E7,9.274067E8,3.5074304E8,3.8261184E7,0E0,0E0,3.812329E8,6.789281E8,0E0,2.4175591E10,2.8619256E7,0E0,6.715015E7,9.753413E8,7.648259E7,0E0,5.374848E6,9.244467E8,0E0,0E0,2.1798257E10,1.0468915E9,1.0255542E9,1.2558758E8,2.7001024E7,0E0,1.2222685E8,3.8970144E7,0E0,8.072907E7,2.1210675E8,8.4721624E7,1.98075E7,1.4281019E8,5.987712E6,4.350259E7,0E0,1.7141328E7,3.1744088E7,1.081459E6,0E0,0E0,4.0128175E5,3.91311E5,0E0,0E0,0E0,3.40352E5,4.25006E7,2.2837792E7,5.386915E10,0E0,1.4464582E10,1.7718542E10,3.876403E7,0E0,1.7187568E8,1.2854784E7,9.043341E7,8.355266E7,1.8005484E5,2.5647923E8,0E0,0E0,0E0,0E0,0E0,0E0,0E0,0E0,0E0,0E0,0E0,0E0,0E0,0E0,0E0,0E0,0E0,0E0,0E0,0E0,0E0,0E0,0E0,0E0,0E0,0E0,0E0,0E0,0E0,0E0,0E0,0E0,0E0,0E0,0E0,0E0,0E0,0E0,0E0,0E0,0E0,0E0,0E0,0E0,0E0,0E0,0E0,0E0,0E0,0E0,0E0,0E0,0E0,0E0,0E0,0E0,0E0,0E0,0E0,0E0,0E0,0E0,0E0,0E0,0E0,0E0,0E0,0E0,0E0,0E0,0E0,0E0,0E0,0E0,0E0,0E0,0E0,0E0,0E0,0E0,0E0,0E0,0E0,0E0,0E0,0E0,0E0,0E0,0E0,0E0,0E0,0E0,0E0,0E0,0E0,0E0,0E0,0E0,0E0,0E0,0E0,0E0,0E0,0E0,0E0,0E0,0E0,0E0,0E0,0E0,0E0,0E0,0E0,0E0],"parents":[2147483647,0,0,1,1,2,2,3,3,4,4,5,5,6,6,7,7,8,8,9,9,10,10,11,11,12,12,13,13,14,14,15,15,16,16,17,17,18,18,19,19,20,20,21,21,22,22,23,23,25,25,27,27,28,28,29,29,30,30,31,31,32,32,33,33,34,34,35,35,36,36,37,37,38,38,40,40,41,41,42,42,43,43,44,44,45,45,46,46,47,47,48,48,49,49,50,50,51,51,54,54,55,55,56,56,57,57,59,59,60,60,61,61,63,63,64,64,65,65,66,66,67,67,68,68,69,69,70,70,71,71,72,72,73,73,74,74,75,75,78,78,79,79,80,80,83,83,84,84,86,86,87,87,88,88,89,89,92,92,93,93,94,94,95,95,96,96,98,98,99,99,100,100,101,101,102,102,103,103,104,104,105,105,107,107,108,108,109,109,110,110,111,111,113,113,114,114,115,115,116,116,117,117,118,118,119,119,120,120,121,121,122,122,125,125,126,126,128,128,129,129,131,131,132,132,133,133,135,135,136,136,139,139,140,140,141,141,142,142,143,143,145,145,146,146,148,148,149,149,150,150,151,151,152,152,153,153,154,154,156,156,157,157,158,158,161,161,162,162,166,166,167,167,168,168,169,169,171,171,172,172,173,173,175,175,176,176,177,177,178,178,179,179,180,180],"right_children":[2,4,6,8,10,12,14,16,18,20,22,24,26,28,30,32,34,36,38,40,42,44,46,48,-1,50,-1,52,54,56,58,60,62,64,66,68,70,72,74,-1,76,78,80,82,84,86,88,90,92,94,96,98,-1,-1,100,102,104,106,-1,108,110,112,-1,114,116,118,120,122,124,126,128,130,132,134,136,138,-1,-1,140,142,144,-1,-1,146,148,-1,150,152,154,156,-1,-1,158,160,162,164,166,-1,168,170,172,174,176,178,180,182,-1,184,186,188,190,192,-1,194,196,198,200,202,204,206,208,210,212,-1,-1,214,216,-1,218,220,-1,222,224,226,-1,228,230,-1,-1,232,234,236,238,240,-1,242,244,-1,246,248,250,252,254,256,258,-1,260,262,264,-1,-1,266,268,-1,-1,-1,270,272,274,276,-1,278,280,282,-1,284,286,288,290,292,294,-1,-1,-1,-1,-1,-1,-1,-1,-1,-1,-1,-1,-1,-1,-1,-1,-1,-1,-1,-1,-1,-1,-1,-1,-1,-1,-1,-1,-1,-1,-1,-1,-1,-1,-1,-1,-1,-1,-1,-1,-1,-1,-1,-1,-1,-1,-1,-1,-1,-1,-1,-1,-1,-1,-1,-1,-1,-1,-1,-1,-1,-1,-1,-1,-1,-1,-1,-1,-1,-1,-1,-1,-1,-1,-1,-1,-1,-1,-1,-1,-1,-1,-1,-1,-1,-1,-1,-1,-1,-1,-1,-1,-1,-1,-1,-1,-1,-1,-1,-1,-1,-1,-1,-1,-1,-1,-1,-1,-1,-1,-1,-1,-1,-1],"split_conditions":[1E0,1E0,1E0,1E0,2E1,3E0,1.9E1,1E0,1.7E1,1E0,2.5E1,1E0,1E0,1E0,4.4E1,1E0,1E0,1E0,2E1,1E0,1E0,1E0,1E0,1E0,-1.4975146E2,5E0,-2.1194888E2,1E0,-1E0,2.4E1,4E0,1E0,1E0,1.8E1,1.3E1,1E0,1E0,1E0,2.5E1,-2.0924663E2,1E0,1E0,1.5E1,1E0,4E0,1E0,3E1,1E0,-1E0,1E0,1E0,-1E0,-7.8603955E2,-1.6401666E3,5E0,2.1E1,2.8E1,3E0,1.382825E4,1E0,4E0,1E0,-2.27571E2,1E0,1E0,6E0,4.4E1,1E0,1E0,4E0,1E0,1E0,1E0,1E0,1E0,4E0,-2.7545813E2,-1.981308E2,1.6E1,4E0,4E0,-1.9111491E2,-2.7609183E2,1E0,2.2E1,-1.5191173E2,4.4E1,4E0,3.5E1,1E0,-2.0230302E2,-1.9070853E2,2E0,1E0,4E0,1E0,6E0,-3.1699057E2,2E0,4E0,1.3E1,4E0,4E0,4E0,1E0,2E0,3.3951672E3,4E0,1.5E1,1E1,1.1E1,1E0,-1.2311309E2,4E0,6E0,4.4E1,2.9E1,2E0,1E0,1E0,1E0,4E0,5E0,-2.4706055E2,-2.1878923E2,9E0,1.1E1,-1.2519032E2,4E0,1E0,-2.2187132E2,4E0,4E0,4E0,-2.2094714E2,1E0,1E0,-1.2616022E2,-1.5534892E2,-1E0,4E0,-1E0,1.3E1,2E0,1.147703E3,2.2E1,2.1E1,8.099482E2,1E0,2.9E1,4E0,1E0,1E0,4E0,1E0,-1.2693202E2,1E0,0E0,3E0,-1.17220375E2,-1.4756868E2,3E0,4E0,-1.7669188E2,-1.5039764E2,-5.9688885E1,7E0,0E0,5E0,3E0,2.0597709E4,4E0,1.6E1,2E1,3.256606E3,2.2E1,2.3E1,2.6E1,2.6E1,2E0,3.1E1,6.446776E2,1.4760902E3,-1.530049E2,-1.400449E2,-7.192929E1,-1.5250764E2,-1.1744496E2,-1.5812589E2,3.3140802E2,-1.1740271E2,-1.7913461E2,-1.3257188E2,-3.864066E2,-2.5138057E2,-6.6887714E2,-4.8411456E2,-1.8117735E2,-3.137059E2,-3.4064035E2,-2.935481E2,-2.1530862E2,-9.176809E1,9.880068E1,-1.7007648E2,-2.1352214E2,-1.5528581E2,-6.642208E1,8.179758E2,2.0631533E1,2.7057327E2,-6.672573E1,-1.454785E2,-2.8742538E2,-4.9292903E0,2.56756E2,9.2169385E2,1.9413671E3,4.158735E3,-3.6126236E1,-1.545692E2,-7.817605E1,2.4481432E2,5.6064325E2,1.5804899E3,-1.4213223E2,-2.2393356E1,-1.8578462E2,-1.5660008E2,-2.1158093E2,-4.7203604E2,-2.7944247E2,3.6306821E3,1.00647034E3,2.1146152E3,-3.064171E2,6.138579E2,2.51499E1,2.5872394E2,2.9801724E2,4.8868057E2,1.0934834E2,-2.0866551E2,4.0844614E2,1.8020747E2,1.1090987E2,5.4583093E2,-3.6580872E2,-5.890941E2,-3.3312625E2,1.3090514E2,-1.4571289E2,-1.6421608E1,-1.5059505E2,3.856923E2,-1.714833E2,-1.1223335E2,-1.5580827E2,-2.6477194E2,-7.899987E1,3.0426334E1,2.433246E1,1.4465868E2,-2.0147406E1,-6.0401833E1,3.7175327E1,5.5652995E0,-3.220297E1,6.6343813E0,-1.01848015E2,-1.4355626E2,-1.03576004E2,5.4601063E1,-1.19591446E2,-2.5361095E2,1.7482076E4,9.634823E3,1.0128104E4,1.3452567E4,7.5023647E3,4.3109062E3,1.7619131E3,1.086098E3,5.202046E2,-9.798662E0,1.530055E3,7.785131E2,-5.1705615E2,-8.775366E2,9.829731E0,-4.6204922E2,1.1537303E1,-2.5526009E1,-1.1138839E3,-1.459957E3],"split_indices":[12,24,4,25,1,1,1,4,1,4,1,36,6,22,1,6,33,4,1,22,13,4,13,3,0,1,0,20,1,1,0,19,19,1,1,6,15,4,1,0,6,22,1,6,0,4,1,6,1,22,22,1,0,0,1,1,1,0,0,17,0,8,0,8,19,1,1,15,15,0,22,6,15,6,4,1,0,0,1,1,0,0,0,13,1,0,1,0,1,22,0,0,1,36,1,36,1,0,1,0,1,0,0,0,22,0,0,0,1,1,1,7,0,0,1,1,1,1,16,16,13,0,1,0,0,1,1,0,0,15,0,0,0,0,0,15,15,0,0,1,0,1,1,0,0,1,1,0,13,1,0,4,4,0,4,0,1,1,0,0,0,0,0,0,0,0,1,1,1,0,0,0,1,1,0,1,1,1,1,0,1,0,0,0,0,0,0,0,0,0,0,0,0,0,0,0,0,0,0,0,0,0,0,0,0,0,0,0,0,0,0,0,0,0,0,0,0,0,0,0,0,0,0,0,0,0,0,0,0,0,0,0,0,0,0,0,0,0,0,0,0,0,0,0,0,0,0,0,0,0,0,0,0,0,0,0,0,0,0,0,0,0,0,0,0,0,0,0,0,0,0,0,0,0,0,0,0,0,0,0,0,0,0,0,0,0,0,0,0,0,0,0,0,0,0],"split_type":[0,0,0,0,0,0,0,0,0,0,0,0,0,0,0,0,0,0,0,0,0,0,0,0,0,0,0,0,0,0,0,0,0,0,0,0,0,0,0,0,0,0,0,0,0,0,0,0,0,0,0,0,0,0,0,0,0,0,0,0,0,0,0,0,0,0,0,0,0,0,0,0,0,0,0,0,0,0,0,0,0,0,0,0,0,0,0,0,0,0,0,0,0,0,0,0,0,0,0,0,0,0,0,0,0,0,0,0,0,0,0,0,0,0,0,0,0,0,0,0,0,0,0,0,0,0,0,0,0,0,0,0,0,0,0,0,0,0,0,0,0,0,0,0,0,0,0,0,0,0,0,0,0,0,0,0,0,0,0,0,0,0,0,0,0,0,0,0,0,0,0,0,0,0,0,0,0,0,0,0,0,0,0,0,0,0,0,0,0,0,0,0,0,0,0,0,0,0,0,0,0,0,0,0,0,0,0,0,0,0,0,0,0,0,0,0,0,0,0,0,0,0,0,0,0,0,0,0,0,0,0,0,0,0,0,0,0,0,0,0,0,0,0,0,0,0,0,0,0,0,0,0,0,0,0,0,0,0,0,0,0,0,0,0,0,0,0,0,0,0,0,0,0,0,0,0,0,0,0,0,0,0,0,0,0,0,0,0,0,0,0,0,0,0,0],"sum_hessian":[2.8199E4,2.5574E4,2.625E3,2.3347E4,2.227E3,1.77E3,8.55E2,2.0372E4,2.975E3,1.133E3,1.094E3,3.26E2,1.444E3,4.73E2,3.82E2,1.1371E4,9.001E3,1.411E3,1.564E3,4.57E2,6.76E2,1.71E2,9.23E2,2.6E2,6.6E1,1.166E3,2.78E2,1.79E2,2.94E2,3.64E2,1.8E1,9.762E3,1.609E3,6.296E3,2.705E3,8.38E2,5.73E2,2.45E2,1.319E3,2.21E2,2.36E2,3.64E2,3.12E2,4E1,1.31E2,4.93E2,4.3E2,1.16E2,1.44E2,1.21E2,1.045E3,1.58E2,2.1E1,1.6E1,2.78E2,6.8E1,2.96E2,1.3E1,5E0,9.089E3,6.73E2,1.376E3,2.33E2,2.642E3,3.654E3,8.54E2,1.851E3,5.53E2,2.85E2,2.71E2,3.02E2,1.58E2,8.7E1,3.79E2,9.4E2,2.29E2,7E0,5.5E1,3.09E2,2.41E2,7.1E1,1.6E1,2.4E1,9.6E1,3.5E1,1.95E2,2.98E2,9.7E1,3.33E2,9.2E1,2.4E1,1.1E1,1.33E2,9.2E1,2.9E1,4.62E2,5.83E2,2.2E1,1.36E2,7.9E1,1.99E2,2.8E1,4E1,5.5E1,2.41E2,9E0,4E0,8.49E3,5.99E2,4.9E2,1.83E2,1.138E3,2.38E2,2.393E3,2.49E2,3.4E3,2.54E2,4.47E2,4.07E2,1.781E3,7E1,2.84E2,2.69E2,1.37E2,1.48E2,2.02E2,6.9E1,3.3E1,2.69E2,8.4E1,7.4E1,3.9E1,4.8E1,2.99E2,8E1,3.89E2,5.51E2,7.6E1,1.53E2,2.57E2,5.2E1,8.3E1,1.58E2,5.3E1,1.8E1,4.9E1,4.7E1,1.7E1,1.8E1,2.81E2,1.7E1,7.2E1,2.5E1,1.28E2,2.05E2,3.6E1,5.6E1,1.04E2,2.9E1,5.2E1,4E1,1.6E1,1.3E1,6.6E1,3.96E2,1.6E1,5.67E2,7.3E1,6.3E1,5.7E1,2.2E1,1.17E2,8.2E1,2E1,8E0,2.7E1,1.3E1,4.1E1,1.4E1,7E0,2.34E2,5E0,4E0,5.828E3,2.662E3,2.73E2,3.26E2,1.27E2,3.63E2,5.7E1,1.26E2,9.42E2,1.96E2,1.742E3,6.51E2,9.4E1,1.55E2,3.268E3,1.32E2,6.4E1,1.9E2,2E2,2.47E2,3.27E2,8E1,1.39E3,3.91E2,5.6E1,1.4E1,2.08E2,7.6E1,1.02E2,1.67E2,1.25E2,7.7E1,4.6E1,2.3E1,2.03E2,6.6E1,4.9E1,3.5E1,3.2E1,7E0,3.5E1,1.3E1,2.29E2,7E1,1.79E2,2.1E2,2.65E2,2.86E2,1.5E1,2.42E2,4E1,1.2E1,1.4E1,6.9E1,1.31E2,2.7E1,1.8E1,3.5E1,1.9E1,3E1,1E1,3.7E1,8E0,1E1,6.1E1,2.2E2,1.2E1,5E0,1.4E1,5.8E1,6E0,1.9E1,9.7E1,3.1E1,5.6E1,1.49E2,2.5E1,3.1E1,3.2E1,7.2E1,1.4E1,1.5E1,8E0,8E0,1E1,3E0,1.3E1,5.54E2,2.5E1,4.8E1,4.3E1,2E1,4E1,1.7E1,8.4E1,3.3E1,4.3E1,3.9E1,1E1,1E1,8E0,1.9E1,9E0,4E0,2.1E1,2E1,8E0,6E0,1E0,6E0,4.6E1,1.88E2],"tree_param":{"num_deleted":"0","num_feature":"37","num_nodes":"295","size_leaf_vector":"1"}},{"base_weights":[4.796524E1,-1.3074373E3,1.7191995E3,-1.2352992E3,-1.6981024E3,2.6256724E3,-1.6529799E3,-1.2810901E3,-7.763197E2,-1.6181176E3,-2.0691362E3,3.8352021E3,-1.2621897E3,-1.7255443E2,-1.2399048E2,-1.305267E3,-8.6873926E2,-2.7125748E2,-1.25865654E2,-1.5587341E3,-2.0579979E2,-2.1791411E2,-1.9663652E2,4.531988E3,-6.5142487E2,-1.1473892E3,-1.5673747E2,-1.2642891E3,-1.422954E3,-8.0454926E1,-2.2027493E2,-2.371306E1,-1.6486462E2,-1.4947413E3,-1.948581E2,5.212953E3,-2.3163622E2,-1.00332745E3,-1.4181178E2,-1.2375945E3,-1.5165233E3,-1.4048715E3,-1.4900064E2,-1.4547637E3,-2.107854E2,6.048925E3,-2.2560481E2,-1.7636308E2,-9.8520166E2,-1.2540194E3,-1.0363434E3,-1.8830844E2,-1.3604509E2,-1.3857858E2,-1.4505151E2,-1.4322964E3,-2.6154987E2,7.0768774E3,-1.9972297E3,-9.2942535E1,-1.04472496E2,-1.2763064E2,-1.15193016E2,-1.0079272E2,-1.4621933E2,-1.4769803E2,-1.1957931E2,8.3355646E2,-1.623503E2,-1.9882988E2,-3.9457864E2],"categories":[],"categories_nodes":[],"categories_segments":[],"categories_sizes":[],"default_left":[0,0,0,0,0,0,0,0,0,0,0,0,0,0,0,0,0,0,0,0,0,0,0,0,0,0,0,0,0,0,0,0,0,0,0,0,0,0,0,0,0,0,0,0,0,0,0,0,0,0,0,0,0,0,0,0,0,0,0,0,0,0,0,0,0,0,0,0,0,0,0],"id":9,"left_children":[1,3,5,7,9,11,13,15,17,19,21,23,25,-1,-1,27,29,31,-1,33,-1,-1,-1,35,-1,37,-1,39,41,-1,-1,-1,-1,43,-1,45,-1,47,-1,49,51,53,-1,55,-1,57,-1,-1,59,61,63,-1,-1,-1,-1,65,-1,67,69,-1,-1,-1,-1,-1,-1,-1,-1,-1,-1,-1,-1],"loss_changes":[6.3971353E10,4.3736883E8,3.8663553E10,2.7573658E8,6.870835E7,4.687921E10,7.819162E7,1.1820851E8,2.912599E8,4.908749E7,5.42336E5,5.485741E10,8.109542E7,0E0,0E0,5.272371E7,5.525744E7,2.7154556E7,0E0,4.1194496E7,0E0,0E0,0E0,3.3234764E10,0E0,6.577664E7,0E0,5.4649856E7,1.437696E6,0E0,0E0,0E0,0E0,3.426381E7,0E0,4.0473952E10,0E0,1.3807616E7,0E0,2.381312E7,4.3149056E7,3.584E3,0E0,3.362432E7,0E0,4.8217915E10,0E0,0E0,2.694208E6,1.4498816E7,5.532736E6,0E0,0E0,0E0,0E0,1.3113344E7,0E0,5.6608604E10,3.657472E6,0E0,0E0,0E0,0E0,0E0,0E0,0E0,0E0,0E0,0E0,0E0,0E0],"parents":[2147483647,0,0,1,1,2,2,3,3,4,4,5,5,6,6,7,7,8,8,9,9,10,10,11,11,12,12,15,15,16,16,17,17,19,19,23,23,25,25,27,27,28,28,33,33,35,35,37,37,39,39,40,40,41,41,43,43,45,45,48,48,49,49,50,50,55,55,57,57,58,58],"right_children":[2,4,6,8,10,12,14,16,18,20,22,24,26,-1,-1,28,30,32,-1,34,-1,-1,-1,36,-1,38,-1,40,42,-1,-1,-1,-1,44,-1,46,-1,48,-1,50,52,54,-1,56,-1,58,-1,-1,60,62,64,-1,-1,-1,-1,66,-1,68,70,-1,-1,-1,-1,-1,-1,-1,-1,-1,-1,-1,-1],"split_conditions":[1E0,1E0,1E0,1E0,1E0,1E0,1E0,1E0,1E0,1E0,1E0,1E0,1E0,-1.7255443E2,-1.2399048E2,1E0,1E0,1E0,-1.25865654E2,1E0,-2.0579979E2,-2.1791411E2,-1.9663652E2,1E0,-6.5142487E2,1E0,-1.5673747E2,1E0,1E0,-8.0454926E1,-2.2027493E2,-2.371306E1,-1.6486462E2,1E0,-1.948581E2,1E0,-2.3163622E2,1E0,-1.4181178E2,1E0,1E0,1E0,-1.4900064E2,1E0,-2.107854E2,1E0,-2.2560481E2,-1.7636308E2,1E0,1E0,1E0,-1.8830844E2,-1.3604509E2,-1.3857858E2,-1.4505151E2,1E0,-2.6154987E2,1E0,1E0,-9.2942535E1,-1.04472496E2,-1.2763064E2,-1.15193016E2,-1.0079272E2,-1.4621933E2,-1.4769803E2,-1.1957931E2,8.3355646E2,-1.623503E2,-1.9882988E2,-3.9457864E2],"split_indices":[4,6,18,25,25,33,33,31,15,31,15,9,15,0,0,33,3,3,0,9,0,0,0,7,0,16,0,24,16,0,0,0,0,10,0,11,0,22,0,26,22,18,0,24,0,10,0,0,13,3,3,0,0,0,0,7,0,26,20,0,0,0,0,0,0,0,0,0,0,0,0],"split_type":[0,0,0,0,0,0,0,0,0,0,0,0,0,0,0,0,0,0,0,0,0,0,0,0,0,0,0,0,0,0,0,0,0,0,0,0,0,0,0,0,0,0,0,0,0,0,0,0,0,0,0,0,0,0,0,0,0,0,0,0,0,0,0,0,0,0,0,0,0,0,0],"sum_hessian":[2.8239E4,1.5593E4,1.2646E4,1.3166E4,2.427E3,9.967E3,2.679E3,1.197E4,1.196E3,2.001E3,4.26E2,7.602E3,2.365E3,2.276E3,4.03E2,1.1305E4,6.65E2,5.85E2,6.11E2,1.767E3,2.34E2,1.96E2,2.3E2,7.123E3,4.79E2,1.722E3,6.43E2,8.394E3,2.911E3,6.36E2,2.9E1,5.72E2,1.3E1,1.522E3,2.45E2,6.479E3,6.44E2,1.127E3,5.95E2,7.596E3,7.98E2,2.31E3,6.01E2,1.432E3,9E1,5.827E3,6.52E2,2.4E1,1.103E3,7.018E3,5.78E2,2.35E2,5.63E2,1.651E3,6.59E2,1.407E3,2.5E1,5.167E3,6.6E2,5.78E2,5.25E2,5.751E3,1.267E3,5.45E2,3.3E1,1.179E3,2.28E2,4.514E3,6.53E2,6.59E2,1E0],"tree_param":{"num_deleted":"0","num_feature":"37","num_nodes":"71","size_leaf_vector":"1"}},{"base_weights":[5.7127323E1,-9.792055E2,1.0243422E4,-1.319071E3,2.7270554E3,-1.1136167E3,3.281616E4,-1.2577239E3,-2.2072725E3,-1.3968887E3,5.289713E3,-1.23836975E2,-5.3106195E2,-2.3915476E3,4.160894E4,-1.4083726E3,-9.014826E2,-1.1536993E3,-3.7961597E3,-1.7002788E2,-1.2747146E2,9.509653E3,5.3721643E2,-2.7802084E2,-7.6194434E2,-1.7450688E3,-6.4132026E3,3.6536266E4,5.6647173E3,-1.2382385E3,-1.604142E3,-8.407044E2,-1.8221844E3,-1.1919814E2,-1.06475914E2,-3.5837338E2,-3.9927087E2,-2.620552E2,1.0438207E4,-5.51791E2,6.341697E2,-6.610297E2,5.167835E1,-7.005089E1,-1.05399345E2,-1.275843E3,-2.1916316E3,-4.8209235E2,-7.603738E2,4.174413E3,2.5638416E3,-1.2628248E3,-1.0539325E3,-1.5348159E3,-3.9268515E2,-1.0770581E3,-5.0300427E2,-2.4087383E2,-4.5088068E2,8.4903955E3,1.622987E3,2.1002972E2,1.9825475E2,-6.193584E1,-8.70021E1,1.2777986E1,-9.2088715E1,-2.622304E2,-1.1858202E2,-3.1134448E2,-2.0843745E2,-1.2715809E3,-1.1131164E2,-1.0812121E2,-9.910187E1,-1.4314663E3,-2.9032803E3,-1.0459879E3,-1.5300542E3,-8.816204E1,-1.4409574E3,-1.2712844E1,-2.0599077E2,9.9022266E2,5.6496063E2,7.8648456E2,-8.979177E1,-1.2603656E2,-1.3787566E2,-1.3522528E2,-1.9029204E2,-3.1409177E2,-2.424851E2,-1.07593056E2,-6.359231E1,-1.6336255E2,-1.3712025E2,-2.460581E1,1.4480112E2,-1.3906543E2,-1.6262474E2,6.390304E1,9.425151E1],"categories":[],"categories_nodes":[],"categories_segments":[],"categories_sizes":[],"default_left":[0,0,0,0,0,0,0,0,0,0,0,0,0,0,0,0,0,0,0,0,0,0,0,0,0,0,0,0,0,0,0,0,0,0,0,0,0,0,0,0,0,0,0,0,0,0,0,0,0,0,0,0,0,0,0,0,0,0,0,0,0,0,0,0,0,0,0,0,0,0,0,0,0,0,0,0,0,0,0,0,0,0,0,0,0,0,0,0,0,0,0,0,0,0,0,0,0,0,0,0,0,0,0],"id":10,"left_children":[1,3,5,7,9,11,13,15,17,19,21,-1,23,25,27,29,31,33,35,-1,-1,37,39,41,43,45,47,49,-1,51,53,55,57,-1,-1,-1,-1,-1,59,-1,61,63,65,-1,-1,67,69,-1,-1,-1,-1,71,73,75,-1,77,79,81,-1,83,-1,85,-1,-1,-1,-1,-1,-1,-1,-1,-1,87,-1,-1,-1,89,91,93,95,97,99,-1,-1,-1,-1,101,-1,-1,-1,-1,-1,-1,-1,-1,-1,-1,-1,-1,-1,-1,-1,-1,-1],"loss_changes":[2.991676E11,3.2405062E10,6.709292E11,1.2811387E9,2.284539E10,1.2594304E8,2.7128614E11,1.1817206E9,2.5417882E9,2.856064E7,2.6728538E10,0E0,1.7840784E7,4.463934E8,5.140539E10,5.1393946E8,3.6522035E8,1.849728E6,1.099264E7,0E0,0E0,7.9794176E9,3.7217555E8,1.884954E7,2.15036E6,2.92632E7,8.838976E6,2.8839379E10,0E0,3.6243456E7,1.1531858E9,4.9033165E8,1.7195096E9,0E0,0E0,0E0,0E0,0E0,7.262585E9,0E0,3.5359027E8,6.2064E4,6.11278E6,0E0,0E0,6.223768E6,1.12352E6,0E0,0E0,0E0,0E0,8.168448E6,6.13888E5,9.847245E8,0E0,4.930739E7,9.85859E8,5.2706252E7,0E0,1.9213394E9,0E0,3.0216394E8,0E0,0E0,0E0,0E0,0E0,0E0,0E0,0E0,0E0,6.554624E6,0E0,0E0,0E0,2.4028365E8,4.8093184E7,4.0915456E7,1.544064E6,4.2676925E8,4.980608E6,0E0,0E0,0E0,0E0,6.552992E6,0E0,0E0,0E0,0E0,0E0,0E0,0E0,0E0,0E0,0E0,0E0,0E0,0E0,0E0,0E0,0E0,0E0],"parents":[2147483647,0,0,1,1,2,2,3,3,4,4,5,5,6,6,7,7,8,8,9,9,10,10,12,12,13,13,14,14,15,15,16,16,17,17,18,18,21,21,22,22,23,23,24,24,25,25,26,26,27,27,29,29,30,30,31,31,32,32,38,38,40,40,41,41,42,42,45,45,46,46,51,51,52,52,53,53,55,55,56,56,57,57,59,59,61,61,71,71,75,75,76,76,77,77,78,78,79,79,80,80,85,85],"right_children":[2,4,6,8,10,12,14,16,18,20,22,-1,24,26,28,30,32,34,36,-1,-1,38,40,42,44,46,48,50,-1,52,54,56,58,-1,-1,-1,-1,-1,60,-1,62,64,66,-1,-1,68,70,-1,-1,-1,-1,72,74,76,-1,78,80,82,-1,84,-1,86,-1,-1,-1,-1,-1,-1,-1,-1,-1,88,-1,-1,-1,90,92,94,96,98,100,-1,-1,-1,-1,102,-1,-1,-1,-1,-1,-1,-1,-1,-1,-1,-1,-1,-1,-1,-1,-1,-1],"split_conditions":[1E0,1E0,1E0,1E0,1E0,1E0,1E0,4E0,1E0,1E0,1E0,-1.23836975E2,3E0,1E0,4E0,1E0,1E0,4E0,3E0,-1.7002788E2,-1.2747146E2,1E0,1E0,2E0,1E0,3E0,1E0,3E0,5.6647173E3,1E0,1E0,1E0,1E0,-1.1919814E2,-1.06475914E2,-3.5837338E2,-3.9927087E2,-2.620552E2,4E0,-5.51791E2,4E0,1E0,1E0,-7.005089E1,-1.05399345E2,1E0,1E0,-4.8209235E2,-7.603738E2,4.174413E3,2.5638416E3,1E0,3E0,1E0,-3.9268515E2,1E0,1E0,1E0,-4.5088068E2,3E0,1.622987E3,3E0,1.9825475E2,-6.193584E1,-8.70021E1,1.2777986E1,-9.2088715E1,-2.622304E2,-1.1858202E2,-3.1134448E2,-2.0843745E2,1E0,-1.1131164E2,-1.0812121E2,-9.910187E1,1E0,3E0,1E0,1E0,1E0,1E0,-1.2712844E1,-2.0599077E2,9.9022266E2,5.6496063E2,2E0,-8.979177E1,-1.2603656E2,-1.3787566E2,-1.3522528E2,-1.9029204E2,-3.1409177E2,-2.424851E2,-1.07593056E2,-6.359231E1,-1.6336255E2,-1.3712025E2,-2.460581E1,1.4480112E2,-1.3906543E2,-1.6262474E2,6.390304E1,9.425151E1],"split_indices":[12,24,4,8,4,34,22,0,4,22,13,0,0,20,0,4,19,0,0,0,0,22,22,0,5,0,34,0,0,16,19,4,4,0,0,0,0,0,0,0,0,5,5,0,0,34,34,0,0,0,0,17,0,10,0,10,18,20,0,0,0,0,0,0,0,0,0,0,0,0,0,19,0,0,0,16,0,29,20,10,30,0,0,0,0,0,0,0,0,0,0,0,0,0,0,0,0,0,0,0,0,0,0],"split_type":[0,0,0,0,0,0,0,0,0,0,0,0,0,0,0,0,0,0,0,0,0,0,0,0,0,0,0,0,0,0,0,0,0,0,0,0,0,0,0,0,0,0,0,0,0,0,0,0,0,0,0,0,0,0,0,0,0,0,0,0,0,0,0,0,0,0,0,0,0,0,0,0,0,0,0,0,0,0,0,0,0,0,0,0,0,0,0,0,0,0,0,0,0,0,0,0,0,0,0,0,0,0,0],"sum_hessian":[2.8338E4,2.5722E4,2.616E3,2.3562E4,2.16E3,1.741E3,8.75E2,2.2042E4,1.52E3,8.28E2,1.332E3,1.433E3,